float w1[32][784] = { { -0.06005658581852913, 0.004792418796569109, -0.04278281703591347, 0.04297398403286934, -0.07177775353193283, 0.035606518387794495, -0.05229976773262024, 0.02240690402686596, 0.0037543000653386116, -0.05419119447469711, 0.03413286805152893, 0.02174769900739193, 0.023355232551693916, -0.04080657660961151, -0.010328421369194984, 2.418401709292084e-05, -0.01792549155652523, -0.020282797515392303, -0.017970168963074684, -0.032611165195703506, 0.05792802944779396, 0.04487662762403488, -0.0030618382152169943, -0.08668625354766846, -0.011805601418018341, -0.05196433141827583, -0.07813120633363724, -0.07936512678861618, 0.05268019065260887, 0.07778122276067734, 0.0014108282048255205, 0.07845005393028259, -0.027815675362944603, 0.025626130402088165, 0.020231468603014946, -0.06506011635065079, -0.0030451002530753613, -0.18306279182434082, -0.25399112701416016, -0.28585731983184814, 0.08245953917503357, -0.22461830079555511, -0.3457699120044708, -0.3335264027118683, 0.0046545108780264854, 0.030857814475893974, -0.08295733481645584, 0.008621690794825554, 0.006667269393801689, -0.045119330286979675, -0.008882693015038967, 0.02396371215581894, -0.08662918955087662, 0.06484819203615189, 0.016818517819046974, -0.050429824739694595, 0.014067025855183601, -0.05071254074573517, -0.001348569174297154, -0.06098400801420212, 0.07713355869054794, -0.22371622920036316, -0.3215826451778412, -0.19912652671337128, -0.5943434238433838, -0.592603325843811, -0.4957302212715149, -0.29069826006889343, -0.3604287803173065, -0.8826502561569214, -0.6197835206985474, -1.0216270685195923, -0.8518862128257751, -0.689413845539093, -0.0477118194103241, -0.003562574740499258, -0.0241293553262949, -0.08295923471450806, 0.011178783141076565, -0.06447441130876541, -0.0683378279209137, -0.08039360493421555, -0.032175738364458084, 0.030403083190321922, -0.08471537381410599, -0.029319992288947105, 0.033752378076314926, 0.08592401444911957, -0.048882391303777695, -0.29099494218826294, -0.4290562868118286, -0.2489161342382431, -0.7014948725700378, -0.31671395897865295, -0.8595342040061951, -1.140519380569458, -1.3418874740600586, -0.7083621621131897, -0.6135334372520447, -1.1589622497558594, -0.9442455172538757, -0.6660125851631165, 0.28248071670532227, 0.1859647035598755, -0.04034699872136116, -0.23249520361423492, -0.3862101435661316, -0.0808996632695198, 0.0657416358590126, 0.07536742836236954, -0.08479476720094681, 0.0038406073581427336, -0.0014051862526685, -0.027400048449635506, -0.030187759548425674, 0.06528246402740479, -0.535247802734375, -2.349454164505005, -2.6734230518341064, -1.7007478475570679, -0.9337384700775146, -1.278069257736206, -1.3038153648376465, -1.063471794128418, -1.559943675994873, -1.4632092714309692, -0.8834474086761475, -0.6890731453895569, -1.031355381011963, -1.6487646102905273, -1.1188442707061768, -0.9869555830955505, -0.8840461373329163, -1.0239356756210327, -0.674027681350708, -0.7456333637237549, -0.34133753180503845, -0.32006555795669556, 0.04987240582704544, 0.0047178021632134914, -0.05163868889212608, -0.031275294721126556, 0.06181595101952553, -0.5817087888717651, -1.3156715631484985, -2.7986245155334473, -3.094876766204834, -2.8586606979370117, -1.8841631412506104, -2.341254472732544, -2.3760063648223877, -1.9348115921020508, -2.149954080581665, -2.1182756423950195, -2.3331832885742188, -2.3746285438537598, -3.204409599304199, -2.6504018306732178, -2.4981064796447754, -1.2509791851043701, -1.20460844039917, -0.679142415523529, -1.072188377380371, -1.2971103191375732, -1.0209153890609741, -1.0309678316116333, -0.29119643568992615, 0.08113393187522888, -0.00014044770796317607, -0.08734379708766937, 0.6591600179672241, 1.0185130834579468, 0.07476187497377396, -1.069572925567627, -2.3192033767700195, -1.873388409614563, -2.1408402919769287, -3.5574772357940674, -3.9316465854644775, -2.613978147506714, -1.8382803201675415, -1.210738182067871, -1.7877099514007568, -2.495043992996216, -2.4510445594787598, -2.972627878189087, -2.541693687438965, -2.8127338886260986, -2.646395683288574, -0.06581208854913712, -0.29735061526298523, -2.136141300201416, -2.2863729000091553, -1.4439836740493774, -0.7513822317123413, -0.04329982399940491, -0.05513682961463928, 0.8794598579406738, 2.00764536857605, 0.8374621868133545, 0.8784365057945251, -0.18910962343215942, 0.2755691409111023, 0.22853615880012512, -1.0910309553146362, -1.6180533170700073, -2.1975009441375732, -2.259627103805542, -2.177910804748535, -3.1942198276519775, -2.2236878871917725, -1.7158790826797485, -1.1720064878463745, -1.357020378112793, -0.9958559274673462, -1.8447057008743286, -2.3978259563446045, -2.491262435913086, -0.6310281157493591, -0.35096922516822815, -0.3964827358722687, 1.0246036052703857, -0.9818931221961975, -0.004187130369246006, 0.060312096029520035, 1.2112836837768555, -0.648077666759491, 0.5327616333961487, 0.9769107699394226, -0.01806497573852539, 0.5882126092910767, 0.12608826160430908, -0.7768011689186096, 0.09532493352890015, -0.6502789258956909, -1.8048155307769775, -2.105241298675537, -3.319551467895508, -3.037933111190796, -2.680814027786255, -2.023491621017456, -1.6544891595840454, -0.6476391553878784, -1.033797264099121, -1.379804253578186, -1.4980888366699219, -0.038124773651361465, -0.1304623782634735, 0.1245998740196228, 0.22738981246948242, -1.7475694417953491, -0.03456549718976021, 0.12422416359186172, 1.624922513961792, -0.3238554000854492, 0.7219324707984924, 0.4999946653842926, 0.32836318016052246, 0.7295209765434265, 0.15713755786418915, 0.46677839756011963, 0.6228252053260803, -0.33539700508117676, -0.87135249376297, -1.0319361686706543, -1.833499550819397, -1.5063222646713257, -1.3910802602767944, -0.34112441539764404, 0.42675668001174927, 1.2263110876083374, 0.7804943919181824, 0.3857651352882385, 0.10900280624628067, 0.19493445754051208, 0.704518735408783, 0.7480633854866028, -0.7721346616744995, -2.6125993728637695, -0.08556550741195679, 0.1061294823884964, 1.3829245567321777, 1.1507667303085327, 1.0596777200698853, 0.13464120030403137, -0.19661244750022888, 1.5155788660049438, 0.3167854845523834, 1.2698674201965332, 2.3190829753875732, 1.634126901626587, 1.7356740236282349, 1.0061697959899902, -0.1508745402097702, -0.1813267469406128, 0.08970554172992706, 0.3360229730606079, 0.48772764205932617, 1.3681176900863647, 1.8722132444381714, 1.8368279933929443, 0.5170648694038391, 0.9375118017196655, 1.0214242935180664, -0.07711539417505264, -1.3688039779663086, -2.1279137134552, 0.06052327901124954, 0.5362712740898132, 1.2723147869110107, 1.5173896551132202, 0.6903102397918701, 0.5789923667907715, 0.7724146246910095, 0.7343752980232239, 0.4167105257511139, 1.2124507427215576, 2.718475580215454, 2.077242136001587, 2.0050628185272217, 1.4613345861434937, 1.5993008613586426, 0.9800060987472534, 0.5005775094032288, -0.022793635725975037, 0.4220527410507202, 1.5829952955245972, 2.6438963413238525, 1.6782341003417969, 0.5936574339866638, 0.9666124582290649, 0.3294565975666046, -2.3000171184539795, -1.8105605840682983, -2.335655927658081, -0.01794329471886158, 0.5530145168304443, 2.091787338256836, 0.4082028269767761, 0.42070141434669495, 0.8126701712608337, 1.2118065357208252, 0.13362015783786774, 0.22224891185760498, 0.7271899580955505, 1.2218033075332642, 0.5714024305343628, 0.19701312482357025, -0.386057585477829, -0.9493582248687744, -0.2846120297908783, -0.3124239444732666, -0.019543077796697617, 0.1395159661769867, 0.8884586691856384, 1.1937565803527832, 1.673911452293396, 0.29865559935569763, -0.13630379736423492, 1.1412594318389893, -0.6801607608795166, -1.11409592628479, -0.1269983947277069, 0.0767868161201477, 0.046368665993213654, 1.115285873413086, 1.095118761062622, -0.39592376351356506, 0.2973928153514862, 0.8357423543930054, 0.10152929276227951, 0.7235686182975769, -0.059974852949380875, -0.37901437282562256, -0.8302019238471985, -1.1208823919296265, -1.730095624923706, -1.1638882160186768, -0.268472820520401, -0.0653936043381691, -0.40589046478271484, 0.13825535774230957, 1.0186434984207153, 0.226914182305336, 2.269068956375122, 0.5170060992240906, -0.004561855457723141, -0.5617486834526062, -0.725232720375061, -0.4523482620716095, -0.07948748022317886, -0.04989573732018471, -0.07939571142196655, 0.44351422786712646, 1.8971495628356934, 0.9155154824256897, -0.7244358062744141, -0.4647045135498047, -1.1739972829818726, -1.683423399925232, -0.02120954729616642, -0.45930927991867065, -0.581888735294342, -1.82170569896698, -2.6825716495513916, -1.9234594106674194, -1.6016802787780762, -1.4298008680343628, -2.1654200553894043, -0.3764747083187103, 0.2880941927433014, 0.6998493075370789, 1.2562432289123535, -0.15963321924209595, -0.4240450859069824, 0.9455143213272095, 0.48621755838394165, -0.1938449591398239, 0.06900224834680557, 0.06608916819095612, 0.38439619541168213, -0.16518960893154144, 0.9733255505561829, 1.7761597633361816, -1.515027403831482, -0.717425525188446, -0.36124008893966675, -0.6873146891593933, -0.13436263799667358, -0.7319085597991943, -2.1418824195861816, -1.8995556831359863, -2.254516839981079, -1.5186153650283813, 0.07356395572423935, -0.17590898275375366, -1.6713579893112183, -0.3442421853542328, -0.010845102369785309, 0.8000342845916748, 1.7673426866531372, 0.5589671730995178, 0.6017311811447144, 0.08542174100875854, -0.3389892280101776, -0.2530469000339508, -0.07580149918794632, -0.05531943216919899, 0.8181929588317871, -0.06918695569038391, 1.829584002494812, 1.3556404113769531, 0.4602934718132019, -0.006777959410101175, 0.9654878377914429, 1.1490349769592285, 0.8168023824691772, -0.41088390350341797, -1.8387389183044434, -1.69404935836792, -1.2109178304672241, -0.4639076292514801, 0.5792828798294067, 0.5252648591995239, -0.9302147626876831, -0.6340511441230774, -0.2920528054237366, 1.2551873922348022, 1.3903656005859375, 1.850641131401062, 1.4183342456817627, 0.33830779790878296, -0.23583514988422394, -1.0143719911575317, 0.07125144451856613, 0.07978744059801102, -0.04948879033327103, 0.3552286922931671, 1.8169389963150024, 0.28548645973205566, -0.023763153702020645, -0.7664985060691833, 0.041097696870565414, 0.7543396949768066, -0.10539867728948593, -2.273230791091919, -1.3872883319854736, -1.2527735233306885, -1.1444036960601807, 0.9700998663902283, 1.162091851234436, 0.25484082102775574, -0.5726767182350159, -0.6858982443809509, -0.656999409198761, -0.2342342734336853, 0.8369724750518799, 1.0623185634613037, 1.4422203302383423, -0.38078638911247253, -0.7800507545471191, -0.7581198215484619, -0.0367295928299427, 0.03798791766166687, 0.32795560359954834, 0.34333881735801697, 2.2193257808685303, -0.3503393828868866, 0.4526541531085968, -0.6361272931098938, -1.1552412509918213, -0.45619556307792664, -0.5286998152732849, -2.532778263092041, -1.6425635814666748, -0.534129798412323, -0.04384178668260574, 0.7110263109207153, 0.905314028263092, -0.3160097599029541, -1.0541324615478516, -0.5569440722465515, -0.750074028968811, -0.18683934211730957, 0.5186941027641296, 0.8933908939361572, -0.11985671520233154, -1.0626442432403564, -0.9149245619773865, 0.3596472144126892, 0.0035897153429687023, 0.06990554183721542, -0.07202892750501633, 0.0602056048810482, 1.8502551317214966, -0.44547057151794434, 1.3471112251281738, 0.4708796739578247, -1.1631529331207275, -2.575587511062622, -3.0040807723999023, -2.6474342346191406, -1.3233956098556519, -0.7538816928863525, 0.062146179378032684, 0.7153558135032654, -0.2247806191444397, -0.992883026599884, -0.8967357873916626, -0.014251568354666233, 0.0401325486600399, 0.08274468034505844, -0.1857966035604477, -1.4021180868148804, -2.0744056701660156, -2.002654790878296, -1.2800979614257812, -0.15349635481834412, 0.039596524089574814, -0.06738250702619553, -0.06212732940912247, -0.04539567977190018, 1.0043977499008179, -0.7199095487594604, 0.8742681741714478, -0.787360429763794, -1.8095320463180542, -1.9162825345993042, -0.8982309103012085, -0.7267493009567261, -0.3903793692588806, 0.21176984906196594, -0.057139020413160324, -0.11667846888303757, -1.2524776458740234, -1.5007829666137695, -1.1094759702682495, 0.04198412969708443, 0.014355395920574665, -0.8906993269920349, -0.5709828734397888, -1.2642641067504883, -0.2474214732646942, -1.4617822170257568, -0.7489838004112244, 0.029894180595874786, -0.015433860942721367, 0.022834498435258865, -0.07615821063518524, -0.022284142673015594, -0.012929527088999748, -1.3601810932159424, -1.4154109954833984, -0.5677052140235901, -1.6604562997817993, -2.3123323917388916, -0.036700356751680374, -0.09125243872404099, 0.880225658416748, 0.3532392084598541, 0.7134748101234436, 0.3651764988899231, -1.4060866832733154, -0.8136846423149109, -0.5416873693466187, -0.2558887004852295, 0.0702027902007103, -0.20036739110946655, -0.5374418497085571, 0.25191614031791687, -0.7068069577217102, -1.080639123916626, -0.626964807510376, -0.05033516883850098, -0.08119062334299088, -0.07280958443880081, -0.046829693019390106, 0.018783263862133026, -0.013428370468318462, -0.9829978346824646, 0.4305243194103241, 0.10027775168418884, -0.7895170450210571, -1.4614980220794678, 0.317301869392395, 0.6966165900230408, 0.44189077615737915, -0.03247842565178871, -0.09921694546937943, -0.4998335838317871, -0.22723393142223358, 0.6168051958084106, -0.25731372833251953, 0.7361189126968384, 0.9958674311637878, 0.3333483636379242, -0.2772783935070038, -0.2524428069591522, -0.3287694752216339, -0.4132545590400696, -0.05068381130695343, 0.5075494647026062, 0.04790438711643219, -0.0404001921415329, -0.027030926197767258, -0.0567135326564312, 0.009014078415930271, 0.7280110716819763, 2.1864280700683594, 1.399357557296753, 1.4518325328826904, 1.2176258563995361, 0.9199517965316772, 0.4742199182510376, 0.908154308795929, 0.21617989242076874, -0.3554755747318268, -0.48440271615982056, 0.4890613257884979, 0.8593238592147827, 0.4186479151248932, 1.4545353651046753, 1.677698016166687, 0.4237670600414276, -0.5832237601280212, -0.9988074898719788, 0.13193655014038086, 1.0995569229125977, 0.46319326758384705, 0.3058578670024872, -0.07336515188217163, -0.014474175870418549, -0.07454424351453781, 0.06963983178138733, 0.08279683440923691, 1.0282829999923706, 2.762146234512329, 1.521642804145813, 1.6892530918121338, 1.7395151853561401, 0.613118052482605, 0.21810251474380493, 0.73404461145401, 0.34212321043014526, -0.8227306604385376, -0.14856356382369995, 1.3571733236312866, 0.8792318105697632, 2.224069833755493, 1.50174081325531, 0.28846850991249084, 0.7416213154792786, 0.05638597533106804, -0.22400589287281036, 0.9307979941368103, 0.879546582698822, -0.14981546998023987, -0.014881794340908527, 0.029986783862113953, 0.03418795019388199, 0.0015203810762614012, 0.08014888316392899, 0.03923850879073143, 0.008632108569145203, 0.6785004734992981, 0.10299092531204224, 0.9210183024406433, 0.4497832655906677, 0.46158483624458313, -0.15376508235931396, 1.3694005012512207, -0.6006330847740173, 0.14848922193050385, 0.7324833273887634, 2.3039326667785645, 1.2101191282272339, 2.801903247833252, 0.4288318455219269, -0.2811850309371948, 1.9000674486160278, 0.5059399604797363, 0.9539990425109863, 1.2397617101669312, 1.0808974504470825, 0.5458720326423645, 0.012818207032978535, -0.0065553756430745125, -0.039677008986473083, 0.015087499283254147, 0.009091073647141457, 0.08350235968828201, 0.07302644848823547, -0.1632196605205536, -0.35967040061950684, 0.39138850569725037, 1.3512850999832153, -0.12568090856075287, 0.5425524711608887, 1.223651647567749, 1.7007477283477783, 1.319499135017395, 2.5717029571533203, 2.2139577865600586, 1.5120872259140015, 2.215829849243164, 1.9804308414459229, 1.8053669929504395, 1.7100638151168823, 0.4360637366771698, 1.3771319389343262, 2.4092118740081787, 0.6253746151924133, 0.051026638597249985, 0.14625206589698792, -0.006386514753103256, -0.03740163892507553, -0.013674632646143436, 0.07256070524454117, -0.06175966560840607, -0.05997297167778015, 0.6205725073814392, 1.4604343175888062, 2.3639864921569824, 2.282198190689087, 2.6537418365478516, 2.4166345596313477, 3.000328302383423, 2.8618743419647217, 3.373253107070923, 2.9155471324920654, 3.6997883319854736, -0.008739548735320568, 0.6226397752761841, 0.5803883671760559, 0.383370041847229, 1.5653159618377686, 1.8167542219161987, 2.3618476390838623, 2.0537171363830566, 0.9331035614013672, -0.0029127139132469893, 0.0077718710526824, -0.004543101415038109, 0.052091244608163834}, {0.07853218913078308, -0.08226612210273743, 0.005565452389419079, 0.006450791843235493, 0.042795948684215546, -0.04190637543797493, -0.08019929379224777, 0.014905760064721107, -0.044904883950948715, -0.08013075590133667, -0.020940657705068588, -0.04222564399242401, -0.014453187584877014, 0.005890356842428446, -0.0019978825002908707, 0.08564537763595581, -0.050384100526571274, 0.06880384683609009, -0.015468275174498558, -0.03594053536653519, 0.04892949014902115, 0.054334934800863266, -0.060128502547740936, 0.027583055198192596, 0.07622779160737991, -0.02876339852809906, 0.033008743077516556, -0.021866662427783012, 0.05857666954398155, 0.0823877677321434, 0.06793569028377533, -0.06953144073486328, -0.05116000026464462, 0.28062885999679565, 0.8862855434417725, 0.8968490362167358, 2.3284451961517334, 1.7001980543136597, 0.3080148994922638, -0.7710266709327698, -0.6775012016296387, -0.5206106901168823, -0.3550012707710266, -0.3116207420825958, -0.3611968159675598, -0.34755179286003113, 2.663336992263794, 2.3505890369415283, 1.7022790908813477, 2.213433265686035, 1.149988055229187, 0.9233131408691406, -0.047651369124650955, 0.03545873239636421, -0.06711865216493607, 0.04550860449671745, 0.08135949820280075, 0.04603426903486252, 0.09859985113143921, 0.4740062355995178, 0.8834489583969116, 0.4766504764556885, 1.200513482093811, 1.1513482332229614, 2.009239673614502, -1.4657566547393799, -1.457070231437683, -1.9677766561508179, -2.9216878414154053, -1.7348239421844482, -0.9125007390975952, 0.08764300495386124, 1.3478840589523315, 1.4616447687149048, 2.5213639736175537, 3.7385995388031006, 3.7943124771118164, 4.036562919616699, 3.2270264625549316, 1.553739309310913, 1.7469626665115356, 1.5306308269500732, 0.07720133662223816, -0.040801454335451126, 0.05143529549241066, -0.05216342210769653, -1.1616438627243042, -0.7783986926078796, 0.8928936719894409, 0.9394543170928955, 1.54409658908844, 1.6765170097351074, 1.0677623748779297, -0.17542925477027893, -1.2773137092590332, -1.479519248008728, -2.060418128967285, -0.44489532709121704, 1.3354908227920532, 0.15294279158115387, 0.9837884306907654, 0.706209123134613, 1.4435639381408691, 1.5886975526809692, 1.1884621381759644, 1.9349169731140137, 0.2153691202402115, 1.099206566810608, 0.4791533648967743, 1.3015022277832031, 0.0035263507161289454, -0.059487320482730865, -0.059681717306375504, 0.06102512776851654, -1.1880621910095215, -0.9753658771514893, 1.024492621421814, 1.6622947454452515, 1.9244945049285889, 0.23516343533992767, 0.15782348811626434, 0.63649582862854, -0.7542873024940491, -2.8861708641052246, -2.984370708465576, -0.9348700046539307, -0.5831189155578613, -1.8923707008361816, -1.3682811260223389, -0.0805245041847229, -0.7657526135444641, 0.5602445006370544, -0.8061057329177856, -0.775542140007019, -1.0879921913146973, -1.9867428541183472, -1.2748268842697144, -1.1880611181259155, -0.9331157803535461, -0.9676136374473572, -0.036745015531778336, 0.03109470009803772, -0.5508345365524292, -0.8764294385910034, 0.8563812375068665, 1.3256657123565674, 0.02542511746287346, -0.6312901973724365, -0.6474623084068298, 0.011778333224356174, -1.6926006078720093, -4.412796974182129, -1.4428261518478394, 0.18449756503105164, 0.7388007044792175, -0.14833411574363708, 0.23939336836338043, 0.3990817070007324, -0.10435222834348679, 0.34836363792419434, -0.9731830954551697, -1.8117676973342896, -1.9141035079956055, -0.7356763482093811, -0.7468900084495544, 0.38709762692451477, -0.5509394407272339, -0.6057623028755188, -0.06733783334493637, 0.08641690760850906, 1.1553846597671509, -1.1371865272521973, 0.007368287071585655, 0.8219361901283264, 0.723671555519104, -0.38714975118637085, -0.8305903673171997, -1.6853110790252686, -3.3105101585388184, -3.409036874771118, -1.6967198848724365, -0.1460411548614502, 0.9915059804916382, 1.1103774309158325, -0.3070782721042633, -0.035030875355005264, -0.9481308460235596, -2.306562662124634, -2.8264877796173096, -2.038862943649292, -0.4315199851989746, -0.31409668922424316, 0.14066271483898163, -2.238351345062256, -0.11475139856338501, -0.45828840136528015, 0.04369521141052246, 0.04790929704904556, -0.03441606089472771, -1.208823561668396, -0.5876495242118835, -0.35714513063430786, -0.37950602173805237, -0.7865964770317078, 0.36175963282585144, -0.7676512002944946, -4.281529903411865, -2.287449836730957, -1.345300555229187, -0.08162934333086014, 1.021985650062561, 0.12975656986236572, -1.3171817064285278, -1.230081558227539, -1.8040947914123535, -3.3309438228607178, -2.815884828567505, -0.3907536268234253, 1.433688998222351, 0.9200109243392944, 0.10165706276893616, -1.7205777168273926, 0.48898845911026, -2.5041022300720215, -0.08466031402349472, -0.08212960511445999, -0.44096460938453674, -1.0024865865707397, -0.21501684188842773, -1.4475699663162231, -0.31722769141197205, 0.06986669450998306, 0.3037162721157074, 0.11802247911691666, -2.784367799758911, -1.9575475454330444, -1.2719542980194092, 1.1391310691833496, 0.6923360824584961, -0.35568884015083313, -1.2521231174468994, -0.9179800152778625, -2.9233012199401855, -3.0336356163024902, -0.9959838390350342, 1.0160795450210571, 0.18696041405200958, -0.24324648082256317, 0.46549105644226074, -0.23110975325107574, -2.1828835010528564, -2.234891414642334, 0.02516355738043785, 0.018617447465658188, -0.1794884353876114, -0.5541974902153015, -0.2706016004085541, -0.803337037563324, -0.9107728004455566, 0.09354817122220993, 0.561144232749939, -0.3969693183898926, -1.076858401298523, -1.4619495868682861, -0.44293051958084106, 0.5147342085838318, 1.055294156074524, -0.9866510033607483, -0.8988769054412842, -0.8630010485649109, -3.145392894744873, -1.1105307340621948, -0.3238334357738495, 0.06766951084136963, -1.3592627048492432, 0.9635644555091858, -0.5184417963027954, -1.498841404914856, 0.9018184542655945, 1.2914475202560425, -0.010515161789953709, -0.030139809474349022, 0.2523427903652191, -0.6968673467636108, -1.2931004762649536, -1.8904253244400024, -1.143747329711914, 0.19253021478652954, -0.20878228545188904, -1.3459120988845825, -0.7817556262016296, -0.9083113670349121, -0.144906148314476, 1.2407662868499756, 0.40815797448158264, -0.7573915719985962, -1.6784656047821045, -1.4832996129989624, -1.7763125896453857, 0.39924362301826477, -0.546526312828064, -1.1536353826522827, 0.46262457966804504, 0.24660088121891022, -0.5009117126464844, 1.2871752977371216, 0.7338827252388, 0.7231781482696533, 0.048769839107990265, -0.14551007747650146, 0.2434110939502716, -1.3125344514846802, -2.3412883281707764, -1.6915256977081299, -0.5065550208091736, 0.22502386569976807, 0.17678530514240265, -0.11322817206382751, 1.057188630104065, 0.5169707536697388, 0.9644423127174377, 1.1188321113586426, -0.4217888116836548, -0.727862536907196, -1.6558948755264282, -0.7348921895027161, -2.0670292377471924, -0.27579453587532043, -0.39439430832862854, 0.30063310265541077, 0.18244668841362, -0.08080866187810898, -1.756948709487915, -0.8994402885437012, -2.222458600997925, -0.1269427090883255, -0.08246228098869324, -0.5139838457107544, -0.06477510184049606, -0.08308184891939163, -1.425249457359314, -2.030059576034546, -1.422487497329712, -0.31747838854789734, 0.5846225619316101, 0.6900591850280762, 0.3788234293460846, 1.1723439693450928, 1.386216640472412, 1.20361328125, -0.10224350541830063, -0.4134756028652191, 0.45523372292518616, -0.49197447299957275, -1.5773680210113525, -0.9092000126838684, 0.32035261392593384, 0.36127373576164246, 0.18010598421096802, -0.5743055939674377, -2.0292694568634033, -1.6049305200576782, -2.2974908351898193, 0.6905502676963806, 0.1780628263950348, -0.7049241065979004, -0.1303684264421463, -0.32455065846443176, -1.186302900314331, -1.8453783988952637, -1.471649169921875, -0.2567508816719055, 0.698384165763855, 1.314988136291504, -0.023082591593265533, 1.2147613763809204, 2.1014482975006104, 1.092869520187378, -0.019471704959869385, 0.09275159239768982, 0.6673166155815125, -0.2020186334848404, 0.2406209111213684, -0.002061686245724559, 0.41454100608825684, 0.9586336612701416, -0.5408424139022827, -2.3043501377105713, -4.271312236785889, -5.307295322418213, -5.103414058685303, -1.335862398147583, -0.059889037162065506, -0.03460897505283356, -0.030512940138578415, -0.14261126518249512, -1.0960873365402222, -1.0492362976074219, -0.7242306470870972, 0.32025346159935, 0.9037018418312073, 1.4249334335327148, 0.7293075919151306, 1.1384638547897339, 1.5651508569717407, 0.7388930916786194, -0.3534104526042938, -0.32655614614486694, 0.14496061205863953, -0.5532627105712891, 0.3497569262981415, 0.3450402319431305, 1.074092149734497, 0.9936745166778564, 0.6404095888137817, -2.2487258911132812, -3.488609552383423, -3.5164079666137695, -1.7908141613006592, -1.1712911128997803, -0.043708935379981995, -0.020316382870078087, -0.6277927756309509, -0.23608410358428955, -0.6878182888031006, -0.01844319887459278, -1.2051819562911987, 0.006879153195768595, 0.10507717728614807, 0.6992694735527039, 1.52644944190979, 2.534970998764038, 1.8712488412857056, -0.23922067880630493, -0.9238040447235107, -0.5847845673561096, 0.5522395372390747, 0.0398985892534256, 0.5824061036109924, 1.7476774454116821, 1.193360447883606, 1.961476445198059, 1.1831997632980347, -1.6104142665863037, -2.108313798904419, -3.014688014984131, -2.262310028076172, -0.4359384775161743, 0.03125755488872528, -0.02299308218061924, -0.6142711639404297, 0.11538844555616379, 0.614927351474762, 0.5028760433197021, -0.7818554639816284, -0.20326831936836243, 0.025089705362915993, -0.25303947925567627, -0.10885023325681686, 1.4547959566116333, 1.2888613939285278, 0.2042502760887146, -0.09200108051300049, 0.3517078161239624, 0.8424986004829407, 0.2713525593280792, -0.14276455342769623, 0.7801412343978882, 0.7973719835281372, 1.000571846961975, 0.3109015226364136, -1.184871792793274, -2.250620126724243, -3.023090362548828, -1.6006664037704468, -1.4096745252609253, -0.06060745567083359, 0.0007313292589969933, -1.5248262882232666, -0.8707764148712158, 0.31422218680381775, -0.6291795372962952, -1.1432807445526123, -1.099257469177246, 0.816516101360321, -0.011897106654942036, 0.6398424506187439, -0.37820160388946533, 0.08241063356399536, 0.8280007243156433, 0.2744424045085907, -0.12203627079725266, 0.11004140228033066, 0.46122264862060547, -0.17405487596988678, 0.5877993106842041, -0.33804288506507874, 0.1998782902956009, -1.2236616611480713, -0.5708842277526855, -3.2104580402374268, -3.431673049926758, -0.8796680569648743, -1.5945696830749512, -0.03340979665517807, -0.07060476392507553, -1.3416916131973267, -1.3562488555908203, 0.22022312879562378, -1.6262521743774414, -1.8448563814163208, -1.319422721862793, -0.1173696219921112, 0.6645869016647339, 0.6044493913650513, 0.10965479910373688, 1.193921446800232, 0.593181312084198, -0.5891731977462769, -0.4237052798271179, -0.1751556098461151, -0.2801617980003357, 0.15602347254753113, 0.4056313931941986, -1.2840585708618164, -1.4660767316818237, -3.7618370056152344, -2.688941240310669, -3.7963271141052246, -2.4481234550476074, 0.4483243525028229, 0.6956325173377991, -0.05053310841321945, -1.1137669086456299, -0.11305536329746246, -0.5196148753166199, -0.6610729098320007, -1.2883803844451904, -1.1549098491668701, -0.5241613388061523, -0.8441451191902161, 0.255049467086792, -0.10900504887104034, 0.6475294828414917, 1.0695252418518066, -0.6192873120307922, -1.182159662246704, -1.039438009262085, -0.5528317093849182, -0.9784557819366455, -0.3895801603794098, -0.36732059717178345, -1.181174874305725, -1.8274247646331787, -2.5088140964508057, -2.1498045921325684, -2.154385566711426, -0.33334895968437195, 0.8115206360816956, 0.5796979069709778, 0.051818788051605225, -0.20463362336158752, 0.0009880843572318554, -0.21386389434337616, -0.8957367539405823, -1.8230676651000977, -1.6306993961334229, -1.3183517456054688, -1.687279462814331, 1.1188822984695435, -0.5833909511566162, 0.6610523462295532, 0.6154158115386963, -0.5229882597923279, 0.19609004259109497, -0.42283961176872253, -0.7564835548400879, -0.7138291597366333, 0.08143791556358337, -0.23270565271377563, -1.0975464582443237, -2.049485921859741, -1.11976158618927, -0.9965639710426331, -1.3119536638259888, -1.10797917842865, 0.06344272941350937, 0.05993533506989479, 0.07627835869789124, -0.053989749401807785, 0.08721619844436646, 0.20081190764904022, -0.5260902643203735, -0.7942607402801514, -1.8648642301559448, -1.819732427597046, -0.16938158869743347, 0.0071901846677064896, -0.3468706011772156, -0.6689210534095764, 0.8499590158462524, 0.4969484508037567, 0.49508723616600037, -0.45341208577156067, -0.6694138646125793, -0.047332365065813065, 1.0785638093948364, 0.46420425176620483, -1.0639777183532715, -1.223784327507019, -0.668971836566925, -0.753705620765686, -1.800464153289795, -1.3684756755828857, -1.120561957359314, 0.028366558253765106, 0.040453311055898666, 0.05270513892173767, 0.052374467253685, -0.05212191119790077, 0.17312629520893097, -0.6968307495117188, -0.33837825059890747, 0.13204090297222137, -0.6804320812225342, -1.3522289991378784, -0.14505743980407715, -1.3483494520187378, 0.39677172899246216, -0.023507781326770782, -0.9900713562965393, 0.1830124408006668, 0.2637144923210144, 0.5122984647750854, 0.4053649306297302, 0.15887099504470825, -1.6279196739196777, -1.142669677734375, -1.0483683347702026, -0.7712608575820923, -2.0649032592773438, -0.44793182611465454, 0.26507073640823364, -0.013267545029520988, 0.0380118303000927, 0.07858569920063019, 0.04631974548101425, 0.21345429122447968, -0.10119089484214783, -0.5543116927146912, 1.0524741411209106, 0.3090597987174988, -1.2321597337722778, -1.9054198265075684, -0.3506745398044586, 0.418996661901474, 0.3837687373161316, -0.37747758626937866, -0.21699577569961548, -0.20594348013401031, -0.4019279181957245, -0.7803139090538025, 2.068671703338623, 2.814006805419922, 0.03895873203873634, -0.1964235156774521, 0.0313691720366478, 1.024167537689209, 0.32043400406837463, 1.1953784227371216, 1.5434504747390747, 0.048621803522109985, -0.06445454806089401, 0.04340210184454918, 0.0790674015879631, 0.01348650548607111, -1.339521884918213, -0.5083639621734619, 1.8321741819381714, -0.02493146061897278, -0.3753283619880676, 0.6684615015983582, -0.2946593463420868, -0.2902338206768036, -0.03518962487578392, -1.349847674369812, -0.07595431059598923, 0.49348217248916626, 1.581404685974121, 0.8725757598876953, 1.2881771326065063, 0.33537083864212036, 0.8978850841522217, 2.320307970046997, 0.050237152725458145, 1.0509445667266846, 0.25689348578453064, 2.0187010765075684, 1.314353346824646, -0.04228147864341736, -0.007299511227756739, 0.04612558335065842, 0.04533493518829346, 0.0700027197599411, -0.9695206880569458, -0.499927282333374, 0.6184856295585632, 0.8086434006690979, 0.34622350335121155, 2.143817186355591, 1.8324377536773682, 0.7757728695869446, -0.9851810336112976, -3.094522476196289, -1.7888143062591553, -0.6106346845626831, -2.7634921073913574, -4.122560024261475, -1.872726321220398, -1.697394609451294, -0.5776309967041016, 0.8193252086639404, 0.09307345002889633, 0.45942017436027527, 0.049982886761426926, -0.07560783624649048, 0.0004993962938897312, -0.07418572157621384, -0.07599275559186935, -0.07779178023338318, -0.0490766242146492, 0.024388188496232033, -0.36211127042770386, -0.6015986800193787, -1.196623682975769, -1.0145882368087769, 0.27465811371803284, 0.03420865163207054, 1.019612431526184, 0.6171690225601196, -0.35778599977493286, -1.2197626829147339, -0.5880462527275085, -2.4663031101226807, -2.058713674545288, -3.5349652767181396, -2.1384437084198, -1.975051999092102, -1.8880783319473267, -0.4933818578720093, -0.8582644462585449, -0.007417808286845684, 0.025939812883734703, -0.05488556995987892, 0.0741928294301033, -0.014154334552586079, 0.03479389473795891, 0.017934424802660942, 0.04137919470667839, -0.044448260217905045, 0.030585480853915215, 0.04384520649909973, -0.9711512923240662, -0.9582557082176208, -0.975189745426178, -1.0189749002456665, -0.042943671345710754, -0.3228607773780823, -0.24483220279216766, -0.8415588736534119, -0.976779043674469, 0.028092777356505394, -0.0985216498374939, 0.006250626873224974, -0.43517276644706726, -0.48477399349212646, 0.04818448796868324, 0.08282849192619324, -0.020450923591852188, -0.043303411453962326, 0.06223786249756813, -0.045941393822431564, 0.018871353939175606, -0.03607897460460663}, {-0.07579520344734192, -0.08590108901262283, 0.010373660363256931, -0.045407239347696304, 0.08499111235141754, -0.0812925472855568, -0.05461201071739197, 0.04732644185423851, 0.011792758479714394, 0.018090739846229553, 0.046247005462646484, 0.0698472186923027, 0.07627633959054947, 0.010805906727910042, 0.08237868547439575, -0.035160962492227554, 0.009353801608085632, 0.07032236456871033, 0.02371947281062603, 0.08519738167524338, 0.07908861339092255, 0.0044747209176421165, 0.05343463271856308, -0.010770944878458977, -0.0748828575015068, -0.05752092972397804, -0.01837315782904625, 0.06587482988834381, -0.07040680199861526, -0.022312190383672714, 0.008119655773043633, -0.07175949215888977, -0.039060503244400024, 0.08001469075679779, -0.024604473263025284, -0.04892471805214882, -0.06453344970941544, -0.07311426103115082, -0.015273410826921463, 0.6053425669670105, 0.03698674961924553, 0.39288777112960815, 0.15692003071308136, 1.9747798442840576, 1.7538918256759644, 1.7273366451263428, -0.38366779685020447, -0.688157856464386, -0.8316900730133057, -0.5173298120498657, -0.047539979219436646, -0.01571737416088581, -0.04906100779771805, -0.07423000037670135, -0.01127590425312519, -0.007892186753451824, -0.03756072744727135, -0.032137446105480194, 0.08255638182163239, 0.8915226459503174, 0.9238842129707336, -0.1267068088054657, 0.5379468202590942, -0.5137107968330383, -2.070274829864502, -2.3168864250183105, -2.836854934692383, -2.193549156188965, -0.5955944061279297, -1.0593801736831665, -1.7114287614822388, -1.3339473009109497, 0.8516948223114014, 0.1454528570175171, -0.22152861952781677, -1.094020128250122, -1.2995120286941528, -1.0527864694595337, -0.7474414706230164, -0.08806415647268295, -0.25554096698760986, -0.25269854068756104, -0.0008130741189233959, 0.04197009280323982, -0.04817204922437668, -0.07200172543525696, 0.0405353307723999, 0.848892331123352, 0.6884335875511169, 0.07873716950416565, 0.48523426055908203, -1.2665579319000244, -2.147723436355591, -3.392620325088501, -5.404034614562988, -3.197580337524414, -0.7584506273269653, -1.7722910642623901, -1.9145115613937378, -0.8378409147262573, -0.20717835426330566, 0.965994119644165, 0.7197220921516418, -1.5647192001342773, 0.35503658652305603, -0.21770615875720978, -1.9884767532348633, -2.322751522064209, -2.1648263931274414, -0.9351048469543457, 0.15313775837421417, -0.030131157487630844, -0.0848274752497673, -0.05562642961740494, 0.07575130462646484, 0.7359442114830017, -0.8521769642829895, -0.3941458761692047, -1.0697009563446045, -2.6458237171173096, -3.3153324127197266, -3.9644479751586914, -4.647184371948242, -2.1673853397369385, -1.995043396949768, -1.0828721523284912, -1.6264725923538208, -0.3673965036869049, -0.9470617771148682, -1.0320332050323486, -1.8169070482254028, -3.9118943214416504, -3.39141583442688, -1.868112325668335, -2.109846353530884, -2.25180721282959, -1.6455433368682861, -0.49777066707611084, 0.8977932929992676, -0.5444157719612122, -0.0421639010310173, -0.07772208750247955, -0.02450687438249588, 0.8665810823440552, -0.8867156505584717, -0.39952754974365234, -1.5815563201904297, -2.848238945007324, -4.345581531524658, -3.5001959800720215, -3.8899035453796387, -1.9043115377426147, -0.9666393399238586, -0.20691384375095367, -1.595885992050171, -0.8933364748954773, -1.160038709640503, -2.299642562866211, -2.7395060062408447, -2.723606824874878, -3.1883485317230225, -2.408329486846924, -0.9401108622550964, -1.7441197633743286, -1.0964187383651733, -1.0009756088256836, 0.4800127446651459, -0.4205746352672577, -0.060451045632362366, -0.05452762544155121, 0.5348520874977112, 0.1914488822221756, -0.9014935493469238, -0.36164483428001404, -1.1169421672821045, -2.7996129989624023, -2.8598828315734863, -1.837432861328125, -1.4457765817642212, -0.14938008785247803, -0.6270287036895752, -0.8231460452079773, -0.24454988539218903, -2.0571508407592773, -1.7491562366485596, -1.1939513683319092, -0.6443735361099243, -0.7706333994865417, -1.2444275617599487, -0.7325820326805115, -0.2853190004825592, -1.190247893333435, -0.07698885351419449, -0.5827862620353699, 0.7463671565055847, 1.5417799949645996, 0.07923471182584763, 1.2900826930999756, 1.1455343961715698, 0.14444321393966675, 0.22293329238891602, -0.7809008359909058, -0.8991439342498779, -0.45973828434944153, 0.2875460386276245, -0.726052463054657, 1.0328761339187622, -0.2732822299003601, -1.1876407861709595, -1.2283992767333984, -0.44884228706359863, -0.8106232285499573, -0.7656312584877014, -0.747403621673584, 0.3132689893245697, -0.641133725643158, -0.2298617660999298, 0.3842247724533081, 0.9557188153266907, 1.012159824371338, -0.28307807445526123, -0.6992164254188538, 0.6578114032745361, 1.6893821954727173, 0.9137845635414124, -0.12605659663677216, 0.5482656955718994, 0.8215131759643555, 0.09049049019813538, -0.14343377947807312, 0.20971985161304474, 1.0977250337600708, 0.9403709769248962, 0.401944100856781, 0.19000257551670074, -0.9739741683006287, 0.26495519280433655, 0.04749937728047371, -0.3416736423969269, 0.21367976069450378, 0.8318242430686951, 0.676315426826477, 1.3533482551574707, 1.4092692136764526, 1.7935940027236938, 1.7349635362625122, 1.0754120349884033, 1.8314720392227173, 1.8677126169204712, 0.8733227252960205, 0.6677690744400024, 3.1130025386810303, 1.3665986061096191, 1.7909235954284668, 0.50081866979599, 2.476771116256714, 2.166034460067749, 1.8300591707229614, 0.8903875350952148, 0.5709888339042664, -1.0439832210540771, -0.4024861454963684, -0.07839787751436234, 1.1238062381744385, 1.4704912900924683, 0.8729726672172546, 1.5585894584655762, 1.9639642238616943, 1.9411200284957886, 2.048722505569458, 1.7629709243774414, 1.3895280361175537, 1.5942131280899048, 1.5992650985717773, 1.4972221851348877, 0.7428450584411621, 2.7413251399993896, 3.333035945892334, -0.15889394283294678, 2.4547104835510254, 1.44039785861969, 1.0448448657989502, -0.16343790292739868, 0.6695643663406372, -0.9107441306114197, 0.16761232912540436, 1.4115504026412964, 1.564837098121643, 0.004777158610522747, 0.43159180879592896, 1.2886911630630493, 1.5258439779281616, 0.7806814312934875, 2.2014403343200684, 1.7300904989242554, 2.2546262741088867, 2.135268449783325, 1.194087028503418, 1.111885905265808, 1.1278560161590576, 1.2801135778427124, 0.938962996006012, 0.8638651371002197, 1.2773860692977905, 2.8103628158569336, 2.2171661853790283, 3.5184409618377686, 0.5903691649436951, 1.75493323802948, 2.051945447921753, 1.4602928161621094, 1.2698615789413452, -1.887682318687439, -0.8252391219139099, 0.35914987325668335, 1.6321983337402344, 0.4845900535583496, 0.23201164603233337, 0.5629403591156006, 1.6226540803909302, 1.3616936206817627, 1.553403615951538, 0.6759951710700989, 0.6840556859970093, -0.07338639348745346, -0.8003997206687927, -1.0295203924179077, -0.8423305749893188, -0.23074103891849518, -0.5417223572731018, 0.13218896090984344, 1.5380146503448486, 2.0886170864105225, 1.4212538003921509, 3.2408041954040527, 0.5427101254463196, 1.1543049812316895, 0.8682060837745667, 0.05756136402487755, -0.1621755212545395, -2.4490134716033936, -1.5210562944412231, 0.8767268657684326, 1.0029391050338745, -0.2721123695373535, 0.9281595945358276, 0.9042308330535889, 1.0437655448913574, 1.1094430685043335, 0.0888684093952179, -0.29453223943710327, -0.7254795432090759, -2.0909793376922607, -2.8189761638641357, -3.088602304458618, -1.8376432657241821, -1.5260162353515625, -1.2022652626037598, -0.16990871727466583, -1.0853462219238281, -1.7503585815429688, -0.5145959258079529, 2.0617141723632812, -2.3005452156066895, 0.07474436610937119, 0.7821212410926819, 0.29153499007225037, -0.7594722509384155, -2.271895408630371, 0.724878191947937, 0.5899769067764282, 0.7099630236625671, -0.17177918553352356, 0.22584140300750732, 0.044911809265613556, 0.7801690697669983, -0.014733639545738697, -0.5578534007072449, 0.0427546463906765, -1.3571194410324097, -1.4390068054199219, -2.3307442665100098, -2.2278828620910645, -1.4176218509674072, -1.6640636920928955, 0.25289326906204224, 0.27619776129722595, -1.0848991870880127, -0.2452412247657776, -1.6557146310806274, -2.852372646331787, -2.300330877304077, 0.00816078670322895, 0.1248532235622406, 1.5486485958099365, -1.0504244565963745, -0.4761967360973358, 1.3034733533859253, 0.41870900988578796, -0.1527552306652069, 0.5305519104003906, 0.3736231327056885, 0.35686832666397095, 0.6864799857139587, 0.057401660829782486, -0.6444380283355713, -0.6920680999755859, -0.3020385205745697, -0.8387344479560852, -0.23490336537361145, -0.21397019922733307, -0.9106678366661072, -0.0013252818025648594, 0.13851895928382874, -0.2968445122241974, -0.04657735675573349, 1.8272435665130615, -1.5702476501464844, -3.3967018127441406, -2.2873597145080566, -0.009251032955944538, 0.1487327665090561, -0.36663684248924255, -1.1207826137542725, 0.2536501884460449, 1.2829935550689697, 0.853531002998352, -0.26419347524642944, -0.250710666179657, 0.8982678651809692, 0.5322346687316895, 0.6367843747138977, -0.22005261480808258, -1.342086911201477, -1.1681910753250122, -0.6059660315513611, -1.0617040395736694, -0.03709755837917328, -0.06751982122659683, -0.26616963744163513, 0.3439815640449524, -0.23866300284862518, -0.5607315301895142, 0.7187333703041077, 1.0543420314788818, -0.5005067586898804, -2.0879290103912354, -1.5096075534820557, 0.08323263376951218, 0.1073094829916954, 0.7636397480964661, -0.48799824714660645, -0.9138937592506409, 0.941679835319519, 0.01773565076291561, -0.7289538383483887, 0.9494802355766296, 0.5512875914573669, 0.7462469935417175, 0.367799311876297, -0.7236676812171936, -1.5640203952789307, -1.549193263053894, -1.1803759336471558, -0.6860150694847107, -0.20542892813682556, -0.150364488363266, -0.601143479347229, -1.2639819383621216, -1.3621251583099365, -0.8662336468696594, -1.9307198524475098, 0.7037897109985352, 0.11764194816350937, -0.7995675206184387, 0.6234140396118164, 0.08398132026195526, 0.2194662094116211, 0.7430558800697327, -0.8870612978935242, -3.40444016456604, 0.7992763519287109, -0.0025611049495637417, 0.4335421919822693, 0.40429091453552246, 0.5908068418502808, 0.443084716796875, -0.48699164390563965, -1.357195496559143, -1.2807222604751587, -0.29735422134399414, 0.0034116508904844522, -0.03340103477239609, 0.19996453821659088, -0.8164665699005127, -0.7185110449790955, -0.9487549662590027, -1.9620442390441895, -0.6883684396743774, -1.010304570198059, 0.13774508237838745, 0.17789840698242188, -1.6438088417053223, 1.4917523860931396, 0.987177312374115, 0.13720084726810455, 2.007746696472168, -2.6671130657196045, -1.8906419277191162, -0.5522035360336304, 0.33045536279678345, 0.46924442052841187, 0.720061719417572, 0.4275175631046295, -0.7106873393058777, 0.030441083014011383, 0.07447429746389389, -0.663499653339386, 0.41311976313591003, -0.3955034017562866, -0.49697938561439514, 0.49073120951652527, -0.5386660695075989, -0.1978347897529602, 0.2687237858772278, -1.629318356513977, 0.03533200919628143, -1.0178477764129639, -0.7699804902076721, -2.2004594802856445, -2.0130348205566406, -0.0008170370128937066, -0.06348217278718948, 2.880769729614258, 1.4098820686340332, -2.453054428100586, -1.2043161392211914, -0.21148481965065002, 0.21033601462841034, 0.5761181712150574, 0.523580014705658, 0.27193036675453186, -0.8682073354721069, 0.13372588157653809, 0.5106562376022339, 0.3080662190914154, -0.2829466164112091, -0.056155286729335785, 0.06923916190862656, 0.5410600900650024, 0.12814408540725708, 1.299028754234314, -1.1249629259109497, -1.044311761856079, -0.04079228639602661, -0.334961861371994, -1.3582760095596313, -2.4320266246795654, -2.089658737182617, 0.061763714998960495, 0.028455398976802826, 1.7525365352630615, -0.6956596970558167, -3.206434965133667, -1.902496099472046, 0.021310683339834213, -0.7988793849945068, -1.132034420967102, -0.38996458053588867, -0.34193137288093567, -0.3266669809818268, -0.010810121893882751, 0.521868884563446, 0.47502705454826355, -0.22975778579711914, 0.20990566909313202, 0.168740913271904, 0.9092848896980286, -0.3678494393825531, -0.2658271789550781, -1.2526988983154297, -0.9910295605659485, -0.44344961643218994, -0.8891997933387756, -0.28159627318382263, 0.9703682065010071, -2.07444429397583, 0.21936769783496857, 0.000640495796687901, 0.040438149124383926, -1.6482160091400146, -3.3015270233154297, -3.681642532348633, -1.7940821647644043, -0.7496528625488281, -0.8375617861747742, -0.8877873420715332, -0.5063706040382385, -1.7015349864959717, 0.08632415533065796, 0.08301157504320145, 0.0011782117653638124, 0.20233598351478577, 0.07964757829904556, -0.1130375787615776, -0.4633878767490387, -0.19984573125839233, -0.8005552887916565, -0.8995988965034485, -1.2696194648742676, -0.4371878206729889, -0.10634150356054306, 0.37591466307640076, 1.3992122411727905, 0.5965896844863892, 0.12467566877603531, 0.00692501338198781, -0.0031636322382837534, -1.4473838806152344, -0.8226755261421204, -3.692413091659546, -1.5975412130355835, -0.40221118927001953, 0.011226262897253036, -0.3047720193862915, -0.08616282790899277, -1.3079551458358765, -1.306077480316162, -0.7505527138710022, -0.0930359736084938, -0.2418326735496521, 0.2254924327135086, -0.6151144504547119, -0.41148948669433594, -0.3008005619049072, -0.9375047087669373, -1.0982986688613892, -0.9392713308334351, 1.1107572317123413, 0.518895149230957, 1.4558515548706055, -0.15036144852638245, 0.6037150025367737, 0.10442449897527695, -0.06395100802183151, 0.07947060465812683, 0.35423967242240906, 1.5104976892471313, -0.32209327816963196, -1.0171257257461548, -1.0178076028823853, -0.2762664556503296, 0.4448953866958618, 0.5656839609146118, 0.5988911986351013, 0.4900091588497162, 0.5274530649185181, -0.10500964522361755, -0.4088819921016693, -0.20687256753444672, -0.018096573650836945, -0.0859612375497818, -0.5871497988700867, -0.6941961050033569, -2.263009786605835, -0.7849661111831665, 0.22334638237953186, 0.20977339148521423, 1.6481544971466064, -1.5900371074676514, 0.14119496941566467, 0.0342165045440197, -0.021539345383644104, -0.03232251852750778, -0.039511606097221375, 0.9025119543075562, 0.2807336449623108, 0.4783249497413635, -1.4652416706085205, -1.144973874092102, 1.0100858211517334, 0.4159376323223114, 1.3189443349838257, 0.331716388463974, 0.6468364596366882, 0.3375656306743622, -0.12965209782123566, 0.6307743787765503, -0.4576539993286133, 1.1367002725601196, -0.16089703142642975, -1.5607978105545044, -1.9286003112792969, -0.321669340133667, 1.2762521505355835, 1.5892361402511597, 1.9279791116714478, -1.6379700899124146, -0.03251197561621666, 0.05789389833807945, 0.0767889991402626, -0.06777987629175186, -0.1750430464744568, 0.43053165078163147, -1.024746298789978, -0.022149527445435524, -0.02624569647014141, -1.4800609350204468, -2.3956267833709717, -1.4064429998397827, -0.7853851318359375, -0.45546525716781616, -0.24275285005569458, -0.28455477952957153, -0.5728940963745117, 0.3036281168460846, 0.4892590045928955, 0.9940147995948792, -0.939944863319397, -0.554082453250885, 0.08064760267734528, 1.3977197408676147, 1.957171082496643, 1.217227816581726, 1.6699931621551514, -0.037821341305971146, 0.01215606089681387, 0.005233915522694588, -0.0740998163819313, 0.0028321684803813696, -0.0578736811876297, 0.05685241147875786, 0.09565404802560806, 0.41590774059295654, -0.1002766564488411, -2.114675760269165, -0.923225998878479, -0.9012854099273682, -2.3667080402374268, -1.4751869440078735, 0.10107085108757019, 0.7907826900482178, -1.2555875778198242, 0.09628140181303024, -0.676213800907135, 0.2640592157840729, -0.4110499620437622, 1.371631383895874, 2.9934911727905273, 1.683322548866272, 2.2269816398620605, -0.5337163805961609, -0.5922260284423828, 0.5495502948760986, 0.030671318992972374, -0.08333709836006165, -0.07096119970083237, 0.047030214220285416, -0.024589920416474342, -0.0005094077787362039, 0.347982257604599, 0.6271542906761169, -0.0011652803514152765, 0.14947409927845, -0.18851499259471893, -0.8520345687866211, 1.4678717851638794, 0.6390551924705505, -1.029516577720642, 0.27648189663887024, 0.5579883456230164, -1.537153720855713, -1.4990700483322144, 0.8530135750770569, 0.856662392616272, -1.2615132331848145, -1.147206425666809, 0.6040264964103699, 1.3814740180969238, 1.2174007892608643, 0.04278736561536789, 0.07131655514240265, 0.017825664952397346, 0.015826253220438957}, {-0.06033049523830414, 0.08534380793571472, -0.047508034855127335, -0.05423137545585632, 0.08044018596410751, -0.08077048510313034, -0.04918457940220833, 0.07128114253282547, 0.02791094221174717, 0.025203969329595566, 0.0514318123459816, -0.04885779693722725, 0.035554591566324234, 0.01682911440730095, 0.05918776988983154, 0.02436915598809719, -0.05109363794326782, 0.07195650041103363, 0.020249905064702034, 0.05659245327115059, 0.03392898663878441, -0.007204959634691477, -0.06190549209713936, -0.041761741042137146, -0.08026784658432007, 0.07201053202152252, -0.04707539454102516, 0.054995350539684296, 0.00662428280338645, -0.04687931761145592, 0.03001895546913147, 0.0077494182623922825, 0.002378460019826889, 0.004382823593914509, 0.03626614809036255, 0.033579062670469284, 0.05984533578157425, 0.0034775864332914352, 0.03610820695757866, -0.06397125124931335, 0.06259211152791977, -0.006222456693649292, -0.07972336560487747, -0.023860853165388107, -0.07231178879737854, -0.0016244588186964393, 0.0733119398355484, 0.07895582914352417, 0.0498587042093277, 0.05226239934563637, -0.028632957488298416, 0.034553494304418564, 0.040390051901340485, -0.041288554668426514, 0.08062105625867844, 0.004411544185131788, 0.011188783682882786, -0.04387142136693001, -0.015379834920167923, 0.03207792341709137, 0.04718686267733574, -0.0024898326955735683, 0.08544652909040451, 0.021814337000250816, -0.08721230179071426, 0.06848454475402832, -0.031307052820920944, 0.0649181380867958, 0.06688980013132095, -0.017406489700078964, -0.07008954882621765, 0.030622178688645363, -0.06138572469353676, -0.02402295172214508, 0.003968170378357172, 0.002140165539458394, -0.03845183923840523, -0.05664271488785744, 0.048374854028224945, -0.04786399006843567, -0.04952129349112511, -0.005245240870863199, 0.03143467381596565, -0.06270727515220642, -0.06810055673122406, 0.055676329880952835, 0.028031693771481514, 0.0133875273168087, -0.04563036561012268, 0.04292786866426468, 0.05805456265807152, 0.05559263005852699, -0.004053169395774603, 0.06945697218179703, -0.021591581404209137, 0.08554425835609436, 0.0026858162600547075, 0.08281217515468597, 0.018993109464645386, 0.006654177792370319, 0.1357911229133606, 0.065088652074337, -0.001416962593793869, -0.04381110146641731, -0.04045001417398453, -0.08202899992465973, 0.06795357912778854, -0.05779804661870003, 0.04683268815279007, 0.0042057037353515625, 0.0703074187040329, -0.04157600551843643, 0.08189611881971359, 0.0678267702460289, -0.05091478303074837, 0.026774710044264793, -0.04089638218283653, 0.05821022018790245, -0.08423549681901932, 0.06356854736804962, 0.14503268897533417, 0.017957324162125587, -0.0003230214642826468, 0.011191237717866898, -0.08913977444171906, -0.09806732088327408, -0.01694488152861595, -0.07707423716783524, 0.0017988462932407856, -0.04513043910264969, 0.0010636135702952743, 0.017744015902280807, -0.049118414521217346, -0.03924601152539253, -0.05004224181175232, -0.07223402708768845, 0.07314988225698471, 0.028255127370357513, 0.03579198941588402, -0.0503389798104763, -0.03210549056529999, -0.05467616021633148, -0.05266128107905388, -0.028859639540314674, 0.07763814926147461, -0.01377742737531662, 0.0855952724814415, 0.08496617525815964, -0.007762131746858358, 0.017016828060150146, -0.028730936348438263, -0.14086149632930756, -0.009018187411129475, -0.0705379918217659, -0.10448065400123596, -0.08798877894878387, 0.014231218956410885, -0.03649640828371048, 0.027400756254792213, 0.010990171693265438, -0.0981115773320198, -0.035927459597587585, -0.14422795176506042, -0.1471773236989975, 0.0036200699396431446, -0.06665726751089096, 0.011282412335276604, -0.02057911641895771, -0.008088494651019573, 0.0020195061806589365, -0.050221964716911316, -0.00618776585906744, -0.027682466432452202, 0.03968045487999916, 0.13063721358776093, 0.05042671784758568, -0.007808413356542587, -0.04559977725148201, -0.029363535344600677, 0.008956167846918106, -0.13690748810768127, 0.004271490499377251, -0.012490780092775822, -0.10983448475599289, -0.06598769128322601, -0.009207074530422688, -0.04385561868548393, -0.10032173991203308, -0.023405756801366806, 0.016621265560388565, -0.027010923251509666, -0.0003923305484931916, -0.08534251153469086, -0.06600605696439743, 0.009273814037442207, -0.04652770236134529, -0.0437660813331604, -0.009419653564691544, 0.024642877280712128, 0.07687202841043472, -0.013177817687392235, 0.058560799807310104, -0.008111420087516308, 0.0017842375673353672, 0.09985959529876709, -0.09350396692752838, -0.02900482714176178, -0.11263322830200195, 0.015270886942744255, 0.006740523036569357, -0.04020153358578682, -0.036902833729982376, -0.013319230638444424, -0.08401314169168472, -0.08206623047590256, -0.09300284832715988, -0.023402411490678787, -0.01034650206565857, -0.13375642895698547, -0.11830741912126541, -0.03900813311338425, 0.06265562772750854, -0.017905812710523605, -0.01218485925346613, 0.062336068600416183, 0.008308404125273228, 0.0172878485172987, -0.018167514353990555, 0.07601284235715866, 0.06258699297904968, 0.06764063984155655, 0.09854915738105774, 0.07714838534593582, -0.004769884981215, -0.08229117095470428, -0.11064329743385315, -0.08069871366024017, -0.11944761872291565, 0.01411029975861311, -0.029280424118041992, -0.03939050808548927, -0.08870313316583633, -0.1261865496635437, -0.04998151212930679, 0.004105043597519398, -0.12992408871650696, -0.11883905529975891, -0.029215842485427856, -0.1315513700246811, -0.035528670996427536, -0.023632565513253212, -0.056343045085668564, -0.03465587645769119, 0.06294268369674683, -0.026981649920344353, -0.052103739231824875, 0.07523321360349655, -0.07999581843614578, -0.07956197112798691, 0.04796864464879036, 0.14215409755706787, 0.09850037842988968, -0.07479789108037949, 0.024793781340122223, -0.07266997545957565, -0.13965752720832825, -0.015267777256667614, 0.01289097685366869, -0.12738163769245148, 0.09720631688833237, -0.03204404190182686, -0.10021527111530304, -0.06411782652139664, 0.024530217051506042, -0.08409833163022995, -0.05877252668142319, -0.09580972045660019, 0.08182970434427261, -0.022618906572461128, -0.020404944196343422, -0.0671890527009964, 0.049001019448041916, -0.050855688750743866, -0.06257554888725281, 0.06392499804496765, -0.01308191567659378, -0.07087438553571701, 0.010614888742566109, 0.08304426074028015, -0.055663980543613434, -0.08454570919275284, -0.08160076290369034, -0.06382019072771072, -0.11647540330886841, -0.12752078473567963, 0.14393122494220734, -0.01170174591243267, -0.0021154910791665316, -0.0010463277576491237, -0.019501835107803345, 0.023718765005469322, 0.0063560884445905685, 0.02459433116018772, -0.014796615578234196, -0.05587361752986908, 0.04700962081551552, -0.07868444174528122, 0.020807359367609024, -0.06330984830856323, -0.08169030398130417, -0.05848432332277298, 0.06358660012483597, 0.023106791079044342, 0.0344557985663414, -0.03659577667713165, -0.029348226264119148, 0.009915238246321678, -0.028184670954942703, -0.07820579409599304, -0.0526631660759449, -0.017371591180562973, -0.045941561460494995, 0.14227019250392914, -0.024842122569680214, 0.10966010391712189, -0.015073521062731743, -0.1420929729938507, -0.06037931889295578, -0.13069231808185577, 0.016281088814139366, -0.08898965269327164, -0.09413230419158936, 0.034406326711177826, 0.03760673850774765, 0.04076927900314331, -0.08089324086904526, -0.08311092853546143, 0.05258972570300102, -0.07197369635105133, -0.06156633049249649, -0.033649154007434845, 0.0801757276058197, 0.03324636071920395, -0.11130281537771225, -0.021157220005989075, -0.0021317112259566784, -0.06567677110433578, -0.1256636083126068, -0.09068696200847626, 0.0263307373970747, 0.006875536870211363, -0.009152114391326904, 0.07427963614463806, 0.05214981734752655, -0.14058701694011688, -0.1040767952799797, -0.04738253727555275, 0.002390446374192834, 0.015364980325102806, -0.0583629235625267, -0.08200535178184509, -0.025614654645323753, 0.049093760550022125, 0.07395050674676895, -0.08645350486040115, 0.06096012517809868, 0.06667301058769226, -0.04554912820458412, 0.0584048368036747, -0.01510585006326437, -0.001267933053895831, -0.08536316454410553, -0.019690731540322304, -0.1446179449558258, -0.025305554270744324, -0.06613632291555405, -0.10679177194833755, 0.09288138896226883, 0.04719200357794762, -0.0009214002639055252, -0.1338963657617569, 0.1425890326499939, -0.10705114901065826, 0.020212894305586815, 0.00906189065426588, -0.04431484639644623, -0.12486927956342697, -0.04104780778288841, 0.06665720790624619, -0.0032363825011998415, -0.046992987394332886, 0.07573831081390381, 0.03997141495347023, 0.0714031457901001, 0.08119215816259384, -0.05876760557293892, -0.06823526322841644, -0.11250308901071548, 0.0010666648158803582, -0.03449872508645058, -0.03997679427266121, -0.026795120909810066, -0.1004321277141571, 0.015895172953605652, -0.016712065786123276, -0.049955446273088455, 0.008242132142186165, 0.12460442632436752, 0.00028338003903627396, -0.12374953925609589, -0.12246157228946686, -0.005789450369775295, -0.08851992338895798, -0.09882044047117233, -0.034326713532209396, -0.10298458486795425, 0.04392475634813309, -0.07213461399078369, -0.05171898007392883, -0.0166301466524601, -0.0735313668847084, -0.06445544213056564, 0.0008432077011093497, 0.007957917638123035, 0.14089109003543854, -0.05066303908824921, -0.010550562292337418, -0.11568260192871094, -0.08853787183761597, 0.020408928394317627, -0.1452713906764984, -0.07888628542423248, -0.07537413388490677, -0.10346438735723495, -0.14071126282215118, 0.11205657571554184, 0.06837388873100281, 0.010178408585488796, -0.08031841367483139, -0.041057288646698, -0.05856426805257797, -0.026168374344706535, -0.019121721386909485, 0.022414423525333405, -0.08622147142887115, 0.06722348183393478, 0.07255937159061432, -0.05940181761980057, 0.04117586836218834, -0.07757935672998428, -0.0025965957902371883, 0.06338661909103394, -0.1307467669248581, -0.08123072236776352, -0.10357227921485901, -0.0658341497182846, -0.08424659073352814, -0.13496163487434387, -0.10100909322500229, -0.05483092740178108, 0.022200025618076324, 0.004641697276383638, -0.060707706958055496, -0.012824594043195248, -0.009358031675219536, -0.04333333671092987, -0.13422490656375885, -0.12761206924915314, -0.05580832436680794, 0.010516946204006672, -0.07021693885326385, -0.095735564827919, 0.0728832557797432, -0.08521722257137299, 0.03918527066707611, 0.003862184239551425, -0.06374052911996841, -0.052194107323884964, -0.07027015089988708, 0.053462401032447815, -0.14671052992343903, -0.055483028292655945, -0.0049723489210009575, -0.09368422627449036, -0.09310930967330933, -0.08264846354722977, -0.08803115040063858, -0.12682698667049408, 0.11276917904615402, 0.011005491018295288, -0.07522645592689514, 0.00910716038197279, 0.018161240965127945, -0.08027597516775131, -0.060560088604688644, -0.09362081438302994, -0.12292483448982239, -0.014313135296106339, -0.13118401169776917, -0.011829840019345284, -0.014350737445056438, 0.05684557929635048, 0.05730954930186272, 0.07308340817689896, -0.04184075817465782, 0.03634766861796379, -0.04212012514472008, -0.001083963317796588, -0.0211018119007349, -0.09674874693155289, -0.051731470972299576, -0.08958631753921509, 0.020698223263025284, -0.0210561640560627, -0.10499537736177444, -0.01771421730518341, 0.006141317542642355, 0.08257275819778442, 0.006880797911435366, -0.13993719220161438, -0.004317795392125845, -0.08909349888563156, -0.06627756357192993, -0.06825420260429382, -0.09992130100727081, -0.12183767557144165, -0.06530066579580307, 0.06683091074228287, -0.020637549459934235, 0.08024368435144424, 0.030551087111234665, 0.06764775514602661, 0.04866426810622215, 0.07613322138786316, -0.053882040083408356, -0.08655456453561783, -0.14707985520362854, 0.0023857946507632732, -0.08931823074817657, -0.013115459121763706, 0.005679589696228504, -0.11847719550132751, -0.06221926212310791, 0.1170133650302887, -0.007277783006429672, 0.042676836252212524, -0.10719974339008331, -0.016873911023139954, -0.015195989981293678, -0.087888203561306, -0.10586270689964294, -0.07850701361894608, -0.01602759398519993, -0.0753663182258606, -0.10629331320524216, 0.0741853192448616, 0.0671110525727272, -0.08722972869873047, -0.05073782801628113, -0.07690594345331192, 0.06931693851947784, -0.03699180856347084, -0.008429099805653095, 0.07177647203207016, -0.10954789817333221, -0.06794236600399017, -0.09679962694644928, -0.045447975397109985, -0.06141012907028198, -0.1418944001197815, -0.11855508387088776, -0.02075813151896, -0.006698135286569595, -0.11056157946586609, -0.09004469215869904, -0.1225133165717125, -0.132223442196846, -0.13368991017341614, -0.07558126002550125, -0.09740356355905533, -0.0887351781129837, -0.007506113499403, 0.03951609507203102, 0.03429986163973808, -0.025332361459732056, -0.06577081978321075, 0.036840371787548065, -0.008449998684227467, -0.043437521904706955, 0.038737133145332336, -0.0795862153172493, 0.03203089162707329, -0.1199762299656868, -0.0629972293972969, -0.035900991410017014, -0.13452865183353424, -0.06114686653017998, -0.13326986134052277, 0.011119079776108265, -0.08282431215047836, -0.05132141709327698, -0.06671277433633804, -0.033536311239004135, -0.04824021831154823, -0.1439254730939865, 0.008367869071662426, -0.032194677740335464, 0.020494673401117325, -0.0032101692631840706, -0.05564142018556595, -0.02183014526963234, -0.011474695056676865, -0.06935358792543411, 0.0116436081007123, 0.03592671826481819, -0.05555364862084389, -0.022902941331267357, 0.05024300888180733, 0.020465070381760597, 0.047535765916109085, -0.03513041138648987, -0.046615250408649445, -0.0764760971069336, 0.026971107348799706, 0.0030619609169662, -0.08815842866897583, -0.05384233593940735, -0.018024329096078873, -0.10110129415988922, -0.06686218827962875, -0.08775792270898819, -0.09162013977766037, -0.018709255382418633, -0.0521106943488121, -0.009706354700028896, -0.06829921901226044, -0.012765660881996155, -0.08932113647460938, 0.08028221130371094, -0.07892818003892899, -0.0850844457745552, 0.05962184816598892, -0.061998579651117325, -0.0271682757884264, 0.084017314016819, 0.057589516043663025, -0.018415236845612526, 0.07951126992702484, -0.0046963817439973354, 0.007318081799894571, -0.049954257905483246, -0.10818463563919067, -0.009893839247524738, 0.012912149541079998, -0.12701286375522614, -0.08080080151557922, -0.1014011949300766, -0.1167580783367157, 0.019161466509103775, -0.12846730649471283, -0.1080600917339325, -0.1461506485939026, -0.1211962029337883, -0.11749686300754547, -0.011273445561528206, -0.08738438785076141, -0.035505302250385284, 0.06816139072179794, 0.011334857903420925, -0.02102518081665039, -0.013865716755390167, -0.0737435445189476, 0.04280928522348404, -0.041381288319826126, 0.025462452322244644, -0.08664976060390472, 0.06048769876360893, -0.027237996459007263, -0.12921106815338135, 0.021512068808078766, -0.04741385579109192, -0.041177939623594284, -0.03486761823296547, -0.14452096819877625, 0.032955579459667206, 0.10993196070194244, 0.09154418855905533, 0.027842706069350243, 0.0019235225627198815, -0.06956262141466141, -0.08828801661729813, -0.08055595308542252, 0.05542964115738869, 0.06551368534564972, 0.02695491723716259, -0.036646768450737, -0.024693883955478668, 0.03888081759214401, 0.08747737109661102, 0.0799998790025711, -0.06268543004989624, 0.06224082410335541, 0.0783352181315422, -0.07068397849798203, 0.039142828434705734, -0.04041000083088875, -0.010375532321631908, 0.014933554455637932, -0.12999221682548523, -0.12364613264799118, -0.025991318747401237, 0.09298771619796753, 0.07873803377151489, 0.01805158704519272, 0.03836733102798462, 0.08319543302059174, -0.04599067196249962, -0.021701175719499588, -0.054750990122556686, -0.06473290175199509, 0.08706275373697281, 0.08234452456235886, 0.05232901871204376, -0.026019440963864326, -0.0469842255115509, 0.05983201786875725, 0.0543728843331337, -0.04866815358400345, 0.07057884335517883, 0.0323064886033535, -0.06405119597911835, -0.04663055017590523, -0.0848916620016098, 0.07520020753145218, -0.028683708980679512, -0.03935512900352478, 0.028197405859827995, 0.02433648332953453, -0.04540028050541878, 0.06310032308101654, 0.016153650358319283, 0.08058738708496094, -0.05971124395728111, -0.06441602110862732, 0.0001777874567778781, -0.07029807567596436, -0.07568508386611938, -0.02345636859536171, 0.041873011738061905, 0.03458019345998764, 0.0793704017996788, 0.043477293103933334, -0.061771705746650696, 0.024510381743311882, -0.05083600431680679, -0.0056947520934045315, -0.06397341191768646, 0.08415757119655609, -0.08216410875320435, 0.05787833780050278, 0.04961146041750908, 0.07332343608140945, -0.03154465928673744, 0.07634957879781723, -0.020149441435933113, -0.02292313054203987, 0.004165688995271921, 0.006216845940798521, -0.06408791989088058, 0.03129174932837486, -0.06558545678853989, 0.06647122651338577, 0.07644730061292648, 0.018858840689063072, -0.055992718786001205, -0.07808762788772583, 0.056240446865558624, -0.03198820725083351, 0.05942835658788681, -0.07544480264186859, 0.0664994940161705, 0.014337816275656223, -0.06558817625045776, 0.023906802758574486}, {-0.05464138835668564, -0.03396693989634514, -0.043100181967020035, -0.07519100606441498, -0.05974326282739639, -0.00042637495789676905, 0.08333534002304077, 0.044114939868450165, -0.05993588641285896, -0.05876695737242699, 0.07448157668113708, -0.020178068429231644, 0.12085568159818649, 0.23012958467006683, 0.20238183438777924, 0.1911827176809311, -0.04008138179779053, 0.0366876944899559, -0.06299221515655518, 0.031224694103002548, -0.07353730499744415, 0.06906059384346008, 0.006481462623924017, 0.03217341750860214, 0.029085759073495865, 0.06752027571201324, -0.03609103709459305, -0.021646801382303238, -0.01482197642326355, 0.014833916909992695, -0.013476070947945118, -0.06862630695104599, 0.03344891592860222, 0.1910323053598404, -0.12688370048999786, -0.17874284088611603, 0.007477611303329468, -0.15932151675224304, 0.11207541078329086, 0.9753477573394775, 0.4448719024658203, 0.5030357837677002, -0.2043135017156601, -0.36037278175354004, -0.2365964949131012, -0.13841548562049866, -0.47654563188552856, -0.8240410685539246, 0.05209905281662941, 0.29145243763923645, -0.09824430197477341, 0.07895592600107193, 0.03985748067498207, 0.05114646255970001, -0.014239155687391758, 0.024709682911634445, 0.07417016476392746, 0.03180914744734764, 0.08741819113492966, 0.9783959984779358, 0.736221194267273, -0.2396383285522461, 0.2372540980577469, 0.30975788831710815, 0.5190934538841248, 0.4623332619667053, 0.9111476540565491, 1.5055296421051025, 1.1430673599243164, 0.024361789226531982, -0.4779353141784668, -2.6915016174316406, -2.726231336593628, -2.4852161407470703, -0.563484251499176, -1.5082201957702637, -1.2806469202041626, -1.5808659791946411, -2.5190465450286865, -0.7907960414886475, 0.7792146801948547, 1.2309569120407104, 0.004015328828245401, 0.0025224899873137474, -0.06776880472898483, -0.041548795998096466, -1.5099966526031494, 0.23294661939144135, -1.2927558422088623, -0.5868655443191528, -0.21073459088802338, 0.20684809982776642, 1.983249306678772, 0.449990838766098, 1.064225196838379, 1.1654936075210571, 0.9325836896896362, 0.5710392594337463, 0.9118312001228333, -0.34312108159065247, -0.7486721873283386, 0.2980954647064209, 0.8201123476028442, 0.6348974704742432, 0.7366438508033752, -1.5826219320297241, -0.9551450610160828, -0.7315406203269958, -0.013342066667973995, 1.1257023811340332, 0.6841572523117065, -0.06845550239086151, -0.07143259793519974, -0.2881753146648407, -1.837485671043396, -1.4389595985412598, -1.3447619676589966, 0.10713908076286316, 1.066670536994934, 0.39475491642951965, 2.0837697982788086, 2.587995767593384, 0.8044927716255188, 0.7846607565879822, 0.5392862558364868, 0.3420350253582001, -1.0709049701690674, -0.6732605695724487, 0.11986169219017029, 0.4679092466831207, 0.29276925325393677, -1.8233128786087036, -1.5133633613586426, -1.667982578277588, -0.9380491971969604, -1.5634783506393433, -0.8260729312896729, -0.10842279344797134, 0.8458409309387207, -0.7671152353286743, 0.05043108016252518, -0.026954729110002518, -1.380959153175354, 3.8587276935577393, 1.6805641651153564, -1.0299047231674194, -0.807386577129364, 0.26167482137680054, 1.0140323638916016, 0.1583980917930603, 0.6552818417549133, 1.0710433721542358, 0.24089667201042175, 0.5495444536209106, -0.4863150119781494, -0.9363449215888977, 0.5069547891616821, 0.5485444068908691, 0.36391890048980713, -0.026552904397249222, 0.10877521336078644, 0.37598517537117004, 0.746557891368866, -0.7358329892158508, 0.41760843992233276, 1.020546793937683, 0.8863885998725891, -0.9708483815193176, -0.07945941388607025, 0.9680855870246887, -1.0456496477127075, 2.2575573921203613, 0.3265131115913391, 0.2588135004043579, 0.08824440091848373, -0.10096435248851776, 0.014452764764428139, 0.14172892272472382, -0.5639002323150635, -0.9687666296958923, 0.7142260074615479, 0.6611596941947937, 0.23445136845111847, -0.4410136938095093, -0.8293113112449646, -0.6872577667236328, 0.08463774621486664, -0.14825615286827087, -0.7531437873840332, 0.3360511064529419, 0.7417377233505249, 0.04611685499548912, 1.8850353956222534, 0.9568675756454468, 0.1583840548992157, 0.20151758193969727, -0.03580843284726143, 0.058250635862350464, -1.4848637580871582, 1.3655720949172974, 1.0038628578186035, 0.922021746635437, -0.19261135160923004, -1.0814039707183838, -0.631056010723114, 0.026691680774092674, -0.3786267340183258, 0.581425130367279, 0.44141748547554016, 0.5240187644958496, 0.5695917010307312, 0.9026476740837097, 0.24511146545410156, -0.092425636947155, 0.7509803771972656, 0.11404864490032196, -0.5621048212051392, 0.12922044098377228, 0.32273826003074646, -0.25246649980545044, -0.41431671380996704, 0.5996732711791992, 0.29668524861335754, 0.10020267218351364, 0.9645656943321228, 0.3241983652114868, -2.2566041946411133, 0.4874734580516815, 0.658257246017456, 0.38626617193222046, -0.012914039194583893, -1.1717257499694824, -0.22027800977230072, -0.8303196430206299, 0.6936013102531433, -0.2941775918006897, 0.777717113494873, 0.830525279045105, 1.1974536180496216, 0.5525329113006592, 0.628251850605011, 0.27557215094566345, 0.5904964804649353, 0.5288404822349548, 0.9382507801055908, -0.1264880895614624, -0.6329084634780884, 0.175381600856781, 0.5899799466133118, 1.755439043045044, 0.5535456538200378, 1.3748819828033447, -0.856601893901825, -1.0508822202682495, 0.5051230192184448, 0.4503372311592102, -0.3637605607509613, 0.3446304500102997, -0.35919928550720215, -1.013465404510498, -0.32996633648872375, -1.0796124935150146, -0.5822963118553162, -0.8015957474708557, 1.0287506580352783, 1.560304880142212, 0.2064133882522583, 0.14789651334285736, 0.37310829758644104, 0.3800864815711975, 0.5009481310844421, 0.03093578852713108, 0.8516571521759033, 0.13421276211738586, -0.598585844039917, 0.3927420675754547, 1.7545524835586548, 2.8063833713531494, 1.9868797063827515, 0.5400004982948303, -0.8975651860237122, -1.138124942779541, 0.7705430388450623, 0.9940823316574097, -0.3964800536632538, 0.10102224349975586, -0.41446956992149353, -0.06637091189622879, -0.556614875793457, -0.23965398967266083, -0.6866289377212524, 0.10356956720352173, 1.056071400642395, 1.3730448484420776, 1.1763907670974731, 0.06964875757694244, -0.34194499254226685, 0.9241230487823486, 0.49541914463043213, 0.016378218308091164, 0.3233250677585602, 0.48286229372024536, 0.016166986897587776, 0.8401759266853333, 2.1144583225250244, 1.5303782224655151, 3.4113850593566895, -0.7745987772941589, -0.5633429288864136, 0.023584123700857162, -0.927800178527832, 0.23744769394397736, -0.40118250250816345, -2.209683418273926, -1.151178002357483, 0.4550327658653259, -0.6509035229682922, -0.19140861928462982, -0.4294970631599426, 0.5072669982910156, 0.9055256843566895, 0.3423643112182617, 0.8147397637367249, -0.10250475257635117, -0.9023265838623047, -0.054071079939603806, 0.7168462872505188, 0.02617645263671875, -0.7931188941001892, 0.33445096015930176, 0.0013799623120576143, 0.1487310379743576, 0.9573522210121155, -0.34353068470954895, 1.4733777046203613, -1.0702191591262817, 0.015280862338840961, 0.43099498748779297, -0.7736020684242249, 0.07619863003492355, 0.6945234537124634, -2.1885030269622803, -1.0628875494003296, 0.6398253440856934, -0.47723889350891113, -0.08784179389476776, -0.1293637752532959, -0.34483492374420166, 0.301032692193985, -0.3569175601005554, -0.4158645272254944, -0.6260855197906494, -1.2679790258407593, -0.06409777700901031, 0.009867329150438309, -0.43273216485977173, -0.4086417853832245, -0.0906950980424881, -0.35741183161735535, -0.07707691937685013, -0.07070023566484451, -2.491579532623291, -1.082888126373291, -1.484984040260315, 0.11785096675157547, 0.8464394807815552, -0.6478602886199951, -0.6531116366386414, -0.3775976300239563, -0.7069954872131348, -0.9704049825668335, -0.8916060328483582, -1.0863773822784424, -0.06650660187005997, -7.441582420142367e-05, -0.36644044518470764, -0.486132949590683, -1.1708616018295288, -0.5592021942138672, -1.3712403774261475, -0.9732531905174255, -0.05523182824254036, -0.12444780766963959, 0.10562887042760849, -0.24282968044281006, 0.0898592546582222, 0.7596683502197266, 0.705619752407074, 0.6351256370544434, -0.721267819404602, -1.2410979270935059, -0.44948726892471313, -0.07178843021392822, -0.4235856831073761, -0.2293298840522766, -0.9134907126426697, -1.440367341041565, -0.488019734621048, -1.438368320465088, -0.6853569149971008, -0.9340893626213074, 0.0334838442504406, 0.3405859172344208, 0.26562878489494324, -0.9816122055053711, -1.3204097747802734, -1.1267644166946411, -1.622999906539917, -1.4916777610778809, -0.8391262292861938, 0.4830145239830017, 0.5482941269874573, 0.6085150241851807, 0.9524405002593994, 1.182974100112915, 1.1471344232559204, 2.1542105674743652, -0.8232739567756653, 0.4635624885559082, -0.4782385230064392, -0.13402816653251648, -0.33060479164123535, 0.0076632434502244, -1.6858817338943481, -0.49638837575912476, -0.32026442885398865, -0.6210048198699951, -0.9542190432548523, -1.375910997390747, 0.11102627217769623, -0.26438239216804504, -1.5628477334976196, -1.1971666812896729, -1.9410239458084106, -2.204068183898926, -1.9627941846847534, -1.3185696601867676, -1.1542916297912598, 0.0025769786443561316, -0.013358663767576218, 0.7277054786682129, 0.6059784293174744, 0.28098538517951965, 1.0474236011505127, 2.0520870685577393, -1.0123255252838135, 0.6655945777893066, 1.01531183719635, -0.21446849405765533, 1.353081464767456, 1.826323390007019, 0.8285099864006042, 0.36267656087875366, 0.2098405659198761, -0.38936567306518555, -0.7883381247520447, -0.8665111064910889, -1.204809308052063, -0.2186683565378189, 0.35034435987472534, -0.4635694921016693, -1.8128269910812378, -1.8922507762908936, -1.3317967653274536, -1.5978779792785645, -1.0698740482330322, -0.6497107744216919, -0.09607964009046555, 0.6662943363189697, -0.009214799851179123, 0.5858234763145447, 1.4691171646118164, 1.4084737300872803, -1.0668658018112183, -0.7651327252388, 1.4822347164154053, -0.005575620103627443, 0.40196895599365234, 2.01465106010437, 0.8730143308639526, 0.4411035478115082, 0.1082131415605545, 0.44702693819999695, 0.0917225182056427, -0.4974716603755951, -0.6810185313224792, 0.11214558035135269, 0.9859135746955872, 0.2534121572971344, -1.5926239490509033, -2.2446935176849365, -1.0848020315170288, -1.5166665315628052, -1.3169972896575928, -0.9187373518943787, 0.025886522606015205, -0.7143581509590149, -1.057173252105713, 0.14365267753601074, 0.853031575679779, 0.34842556715011597, -1.6490248441696167, -2.188706636428833, 1.554741382598877, -0.6027308106422424, 0.34173619747161865, -0.5245346426963806, 0.6402847766876221, 0.5049980878829956, 1.2263914346694946, 0.25851014256477356, -0.2320224940776825, 0.4837968349456787, 0.17603285610675812, 0.42945876717567444, 1.2484591007232666, 0.8124121427536011, -1.1158214807510376, -2.0079009532928467, 0.05702304095029831, -1.0070141553878784, -1.3361234664916992, -0.8639597296714783, -1.1331807374954224, -1.7947056293487549, -0.8416425585746765, -1.0527310371398926, -0.23841407895088196, 1.0588765144348145, 0.03538614138960838, -1.4920525550842285, -1.027471661567688, -0.4638110399246216, 1.4198728799819946, -2.2369751930236816, -0.15270563960075378, 0.4837477207183838, 1.6245956420898438, 1.1402254104614258, -0.2035595029592514, 0.032271791249513626, -0.35330116748809814, 0.34474432468414307, 0.8890933394432068, 1.0864465236663818, 0.1900363266468048, -0.11527600139379501, 0.2878290116786957, -0.4431944787502289, -0.039661407470703125, -0.6434693932533264, -0.9134053587913513, -0.12620770931243896, 0.286378413438797, -0.6500846147537231, 0.19205127656459808, 0.29313236474990845, -1.1076281070709229, -0.081132672727108, -2.0368499755859375, 0.037259791046381, 1.8249037265777588, -0.12038135528564453, 0.7545720338821411, 0.538188636302948, 0.6666125655174255, 1.2103946208953857, 0.9996200203895569, 1.686388373374939, 1.550573706626892, 1.06570303440094, 1.6021062135696411, 1.5486602783203125, 1.1371078491210938, 0.8047357201576233, 0.9127164483070374, 0.6669663786888123, 0.12625771760940552, -0.5488317608833313, -0.5588525533676147, -0.3900785744190216, 0.3327193856239319, -0.28827571868896484, 0.19270972907543182, -0.8940320611000061, -0.8781587481498718, -0.7707403898239136, -0.6226521730422974, 0.0016509778797626495, -0.014658606611192226, 2.21586275100708, 1.0068551301956177, -1.0230712890625, -1.0401314496994019, 0.7351335287094116, -0.6654059290885925, 0.1677832156419754, 1.3674598932266235, 1.0490669012069702, 2.101818799972534, 1.6623066663742065, 1.3137297630310059, 1.040305495262146, 0.6503463983535767, -0.009150153025984764, 0.030408868566155434, -0.32587987184524536, -0.9645931124687195, -1.6852753162384033, -0.39822977781295776, 1.5341196060180664, 1.0636545419692993, -2.4901540279388428, -0.46149739623069763, 0.08900776505470276, 1.4526442289352417, -0.049582675099372864, -0.4326856732368469, 2.637791633605957, 0.7043019533157349, -0.9616276621818542, 0.2515410780906677, 0.5814993977546692, -0.19882947206497192, -0.41557735204696655, 0.9979678988456726, 1.5501439571380615, 1.7077020406723022, 1.6527425050735474, 1.7517704963684082, 0.759158730506897, 0.45300745964050293, 0.12444276362657547, 0.875884473323822, 0.8378587365150452, -0.9031760096549988, -0.4059639871120453, 0.8139636516571045, 2.496556043624878, 0.028278814628720284, -1.7187963724136353, -0.8804613351821899, 0.5093222260475159, 1.5928229093551636, 0.0788302794098854, 0.0742466077208519, 1.3985458612442017, -0.34934163093566895, -1.676126480102539, 0.34210899472236633, -0.16252775490283966, 0.4005071222782135, 0.7889513969421387, 1.3958436250686646, 1.5025721788406372, 1.244626522064209, 1.0819132328033447, 0.6331663131713867, -0.09693598002195358, 0.7783034443855286, 1.1325974464416504, 1.584089994430542, 1.5852121114730835, 0.7233178615570068, 0.13269150257110596, 1.6123114824295044, 2.755204200744629, 1.6147884130477905, -0.21768687665462494, -0.13594508171081543, 0.04424959421157837, 0.07721561193466187, -0.010261578485369682, 0.08633434027433395, -1.189685344696045, -0.8103727698326111, -1.831904411315918, -1.2886707782745361, -1.7700814008712769, -1.6510884761810303, 0.25420358777046204, 0.6344627141952515, -1.2561347484588623, -1.039039969444275, 0.6947322487831116, 0.2747167646884918, 1.2338014841079712, 1.1895394325256348, -0.1556602120399475, -1.0561609268188477, 1.099725365638733, 0.09160799533128738, -0.024558836594223976, -0.2601683437824249, 0.9045134782791138, 0.3244868218898773, 1.0318572521209717, -0.9563690423965454, -1.7276052236557007, 0.008778182789683342, 0.022066835314035416, 0.05934850499033928, 0.14329442381858826, -1.3158386945724487, -1.2143336534500122, -2.077636241912842, -2.263761043548584, -3.7697906494140625, -4.595910549163818, -4.257769584655762, -3.6999082565307617, -3.037473440170288, -2.34503173828125, -1.4972068071365356, -0.8182199001312256, -0.585277259349823, -0.7132686376571655, -0.0036087611224502325, 0.7882749438285828, -0.07959891110658646, -1.6424487829208374, -2.6346747875213623, -1.950930118560791, -2.5640621185302734, -1.1597604751586914, 0.053568847477436066, 0.07517463713884354, -0.02112475410103798, -0.07578282058238983, 0.07755552232265472, -0.06858751177787781, -0.08324667066335678, 1.0412724018096924, 0.9623844623565674, -0.09057925641536713, -1.1091054677963257, -3.3163812160491943, -3.247331380844116, -1.1234910488128662, -1.4318058490753174, -3.07328724861145, -1.5744885206222534, -1.535506010055542, -2.6557109355926514, -1.6411552429199219, -2.175649404525757, -2.567903518676758, -0.5579966902732849, -0.8744077086448669, -0.9236581921577454, -0.7965254187583923, -0.03160836920142174, 0.022968022152781487, -0.06384700536727905, -0.01738184131681919, 0.038919903337955475, -0.05423733592033386, -0.07767559587955475, -0.047956064343452454, 0.025016648694872856, -0.11112824827432632, -0.482206791639328, -0.6460249423980713, -0.45234668254852295, -0.5192309617996216, -1.0041422843933105, -1.005467414855957, -1.5857256650924683, -0.793874979019165, -0.47515228390693665, -0.5900934338569641, -0.6320464611053467, -0.17186157405376434, -0.3937416672706604, -0.34147703647613525, -0.18007047474384308, 0.007115961518138647, -0.038478657603263855, -0.052266381680965424, -0.078916035592556, -0.0029549396131187677, 0.0646771639585495, -0.08432067930698395, -0.06708545237779617}, {0.03049503266811371, 0.07518503069877625, -0.007111487910151482, -0.009804490953683853, -0.08033762872219086, -0.03641986846923828, 0.0008969673654064536, 0.014274055138230324, 0.06301819533109665, -0.08263345807790756, -0.010692505165934563, 0.08558490872383118, 0.06697482615709305, -0.06425517052412033, -0.007244056556373835, 0.018767474219202995, -0.00043266863212920725, 0.027686037123203278, -0.027573512867093086, 0.0644843801856041, -0.08240318298339844, 0.04801392927765846, -0.08386792987585068, 0.058775659650564194, 0.03299645707011223, 0.06252538412809372, -0.0032986728474497795, 0.05355728417634964, -0.05924383923411369, 0.08123200386762619, -0.010279134847223759, -0.01034892350435257, 0.0026694920379668474, 0.03205417841672897, -0.20460492372512817, -0.34786978363990784, -0.38499945402145386, -0.5008761286735535, -0.38832011818885803, -0.32380056381225586, -0.648517370223999, -1.1840920448303223, -0.27544310688972473, 0.4300134479999542, 0.661485493183136, 0.5725893378257751, -0.2518151104450226, -0.5805591344833374, -0.2633785903453827, -0.31047508120536804, 0.23535437881946564, 0.3314017355442047, 0.04474954679608345, -0.05768536776304245, -0.018783362582325935, 0.03555481135845184, 0.08143328130245209, -0.07670514285564423, -0.02470661699771881, 0.3466890752315521, 0.0614936500787735, -0.3585178256034851, -0.3422659635543823, -0.8023523688316345, -0.7971290946006775, 0.02590823918581009, -0.18486090004444122, -0.9798699021339417, 0.01972312293946743, -0.3581652343273163, -0.7131564021110535, -2.0795907974243164, -1.9229985475540161, -1.3280105590820312, -0.7426626682281494, -0.6502318978309631, -0.42344218492507935, -0.5664545297622681, -0.360583633184433, 0.31874018907546997, -0.032659806311130524, 0.014324425719678402, 0.030768858268857002, 0.08698078244924545, 0.0032908720895648003, 0.07991084456443787, 0.33364543318748474, 0.9276712536811829, 0.14454342424869537, -0.7760493159294128, -0.07097070664167404, -1.1800174713134766, 0.6484515070915222, -0.6590065956115723, -0.5439789295196533, -0.7750535011291504, -1.2633699178695679, -2.5816545486450195, -1.8946458101272583, -0.933775007724762, -1.8691030740737915, -0.058101121336221695, 0.020605020225048065, -1.722570776939392, -1.9672904014587402, -1.6974842548370361, 0.4701750576496124, -0.08117038756608963, 0.2684764862060547, 0.16814519464969635, 0.1811395287513733, -0.08423604816198349, 0.04246640205383301, 0.006258060224354267, 0.03769978508353233, 0.9945071339607239, 0.3699674904346466, -3.285568952560425, 0.24924778938293457, 0.7257809638977051, 0.7616053223609924, -0.9395501613616943, -3.050848960876465, -2.4799113273620605, -1.9042408466339111, -1.3923267126083374, -2.1096463203430176, -1.2992769479751587, -1.6615099906921387, -0.2725369930267334, -1.2664419412612915, -2.374162435531616, 0.4519912600517273, -0.8163272142410278, -1.3225407600402832, -0.08932135254144669, -0.20085442066192627, 0.29716867208480835, 1.0213124752044678, 0.06713234633207321, 0.010167736560106277, 0.045108165591955185, 0.3892979323863983, -0.7926480770111084, 0.9361022710800171, 1.3526387214660645, 1.0664045810699463, -0.06119241937994957, 1.244268774986267, -0.33629271388053894, -0.6947547197341919, -0.4975052773952484, 0.506109893321991, 0.7077428698539734, -0.2409321367740631, -0.7303305864334106, -1.2619742155075073, -1.2794380187988281, -0.410222589969635, -0.2837429344654083, -1.0770803689956665, -2.7503254413604736, -1.5605714321136475, 0.6222735643386841, -0.3997315764427185, 1.0599961280822754, 2.515575885772705, -0.791872501373291, 0.0836448073387146, 1.3788083791732788, -0.4077862501144409, 0.9276139140129089, -1.0329686403274536, -0.8521615862846375, 0.49950429797172546, 0.2176504135131836, 1.1352540254592896, 0.6399209499359131, 0.8547672033309937, 0.29672813415527344, 0.9611212015151978, 1.175086259841919, 1.455750584602356, 0.6211585998535156, 0.783568799495697, 1.0645798444747925, 0.9142442345619202, -0.3077978193759918, -0.07270871847867966, 1.1617767810821533, -0.6948360800743103, -1.1214029788970947, -1.2962232828140259, 0.9389858245849609, 1.0894465446472168, -1.6662596464157104, -0.03372905030846596, 2.070406675338745, 1.2006694078445435, 3.1617136001586914, -0.5420843362808228, -1.7256261110305786, 1.0049177408218384, 0.2999105751514435, 0.9987132549285889, 0.3162115216255188, 0.5077694058418274, 0.23104777932167053, 1.3199758529663086, 1.3618731498718262, 0.836765468120575, 0.5878629088401794, 0.507627546787262, 0.6152287125587463, 0.7014855146408081, -0.43570178747177124, 0.16915181279182434, 1.153900384902954, -0.38826626539230347, -1.2319570779800415, -2.2458760738372803, -3.186819076538086, -2.4327447414398193, -1.2614551782608032, -1.9574700593948364, 0.12569452822208405, 0.47023871541023254, 0.048561494797468185, -0.5846224427223206, -0.6924417614936829, -0.12487496435642242, 0.04751797020435333, 1.5998190641403198, 0.5791381001472473, 0.7082103490829468, 1.1169017553329468, 1.1470082998275757, 1.3637213706970215, 1.6611051559448242, 1.5205364227294922, 1.0326766967773438, 0.6579558849334717, 0.8239721059799194, 0.26537543535232544, -0.25917327404022217, 0.5422535538673401, 0.5368968844413757, -0.30506300926208496, -2.875925064086914, -3.245255708694458, 0.045376379042863846, 0.866945207118988, 1.613027572631836, 1.8109735250473022, 1.2613482475280762, 1.4135030508041382, 1.8522169589996338, 0.9216794967651367, 1.245818853378296, 0.783035397529602, 0.5082012414932251, 1.5508809089660645, 1.5611562728881836, 1.2479567527770996, 1.9802322387695312, 1.8966119289398193, 2.732787609100342, 1.0527589321136475, -0.2722760736942291, 0.2775285542011261, 0.17832736670970917, 0.426553875207901, -0.3177122175693512, -0.5040661096572876, 0.43530625104904175, -0.005440807901322842, -2.484834909439087, -0.6818881034851074, 1.450373888015747, 1.689267635345459, 1.686482548713684, 1.1303259134292603, 1.6799193620681763, 1.9987856149673462, 1.1153860092163086, 1.4076285362243652, 1.9917335510253906, 0.8338707089424133, 0.5040373206138611, 1.2986165285110474, 0.2684899866580963, 0.8828030228614807, 0.21564587950706482, 1.5002163648605347, 0.7621231079101562, -0.4903181791305542, 0.1783866137266159, -0.3309365212917328, 0.6304986476898193, 0.6095664501190186, 0.776422381401062, 0.5889055728912354, -0.05987929180264473, 0.2791062295436859, -3.4322333335876465, -1.6488524675369263, -1.3651494979858398, 1.013075828552246, 2.2394797801971436, -0.3289192020893097, 0.6363513469696045, 1.8743699789047241, 0.8028361201286316, 0.17897126078605652, 0.39342114329338074, 0.10822249948978424, -0.09107410907745361, -0.18131329119205475, -0.42452025413513184, 0.7923957705497742, -0.13425688445568085, 0.10987789928913116, -1.3015398979187012, -0.6483632922172546, -0.1998840868473053, 0.45987454056739807, 0.8058579564094543, 0.8540220856666565, 1.7275241613388062, 1.288511872291565, 1.1472896337509155, 0.4222572147846222, -1.89559805393219, -0.1889784336090088, -0.24585691094398499, -1.197641372680664, 1.1340522766113281, 0.8953014016151428, -0.2795858383178711, -0.13302937150001526, 0.31327351927757263, -0.5669301152229309, -0.02849995717406273, -0.6303277611732483, -1.1803977489471436, -0.5333296060562134, -0.9449955224990845, -1.4127051830291748, -3.137416124343872, -1.8000071048736572, -0.9096040725708008, 0.3935801088809967, 0.44408607482910156, 1.0701014995574951, 1.4222338199615479, 1.290777325630188, 0.698235273361206, 1.2134075164794922, 0.16427095234394073, 0.11495709419250488, -0.42395323514938354, 1.7306053638458252, -0.8033655285835266, -0.7341652512550354, -0.8726179599761963, 0.6382587552070618, 0.09721948206424713, -0.6911181211471558, -0.46103301644325256, -1.183650016784668, -1.4002904891967773, -0.47630366683006287, -0.3743475675582886, -0.7823775410652161, -1.0698481798171997, -1.4796137809753418, -2.471632719039917, -0.10641483962535858, 0.38678377866744995, 0.3202463388442993, 0.8992623090744019, 0.8594590425491333, 0.9793698787689209, 0.7358174920082092, 0.6053422689437866, 0.7967833876609802, -0.6125615239143372, -1.4594002962112427, -1.2886333465576172, -0.19790120422840118, -0.5739291310310364, 0.48679712414741516, -1.6955757141113281, 1.3695392608642578, 1.4938777685165405, -0.2399759143590927, -0.21135661005973816, -1.8964040279388428, -1.3534104824066162, -0.9547770023345947, -0.036394186317920685, -0.8704028725624084, -0.5371109247207642, -1.2646678686141968, -1.4931859970092773, -0.5036096572875977, 0.19482356309890747, 0.7367783188819885, 0.012155748903751373, 0.34610164165496826, 0.8081932663917542, 0.2709222435951233, 0.5005934238433838, 0.3015917241573334, -0.8065295219421387, -0.5965384244918823, -1.2156412601470947, -1.6601454019546509, 0.5257333517074585, 0.174612894654274, -1.6569494009017944, -0.2620090842247009, -1.8562648296356201, -1.5259507894515991, 0.4234229326248169, -0.9304237961769104, -0.15193207561969757, 0.03595709055662155, -0.2962014079093933, -1.0943553447723389, -0.16040770709514618, 0.034514330327510834, -0.44853922724723816, -0.8219181895256042, -0.443396657705307, 0.6307340264320374, -0.18075516819953918, 0.9793815016746521, 0.8177165985107422, 0.06097016856074333, 0.26574984192848206, 0.3773995637893677, -0.1924530267715454, -0.7994527220726013, 0.5321165919303894, -2.3057737350463867, -1.4482492208480835, -0.6848337054252625, 0.6671892404556274, 0.5055699348449707, -0.6178320646286011, -2.5067217350006104, 1.2598527669906616, -0.3832835257053375, -0.3315694332122803, 0.1095379889011383, -0.4418271780014038, -0.6731798052787781, 0.9139307141304016, 0.37712162733078003, -0.31678977608680725, -0.6732008457183838, -1.293696641921997, -0.5708351135253906, 0.13042913377285004, 0.21488584578037262, -0.0538334995508194, -0.9589177370071411, -0.6768841743469238, -0.9049639105796814, -0.27036356925964355, 0.12731969356536865, 0.5945996642112732, -2.184262990951538, -2.7165687084198, -1.5214643478393555, 0.06108606234192848, 0.23501765727996826, -0.9561851024627686, -0.49764835834503174, 0.8909879326820374, 0.32622432708740234, -0.9859755039215088, 0.31862956285476685, 0.0004569249867927283, -0.005032777786254883, 0.1889183521270752, 0.07902128994464874, 0.5368403792381287, -0.06223079189658165, -0.2337864637374878, -0.030006326735019684, -0.1592613011598587, -0.10059303790330887, -0.6258245706558228, -0.3525533974170685, -0.7153699994087219, -1.4982413053512573, -0.7093582153320312, -0.6897348165512085, -0.20821169018745422, 0.45613452792167664, -3.143923044204712, -1.8235586881637573, 1.449881911277771, 0.2887733280658722, 0.7132515907287598, -1.2169779539108276, -0.5128632187843323, 0.40522444248199463, -0.6916966438293457, -1.0245248079299927, -0.5063399076461792, -0.31727170944213867, 0.42029595375061035, -0.03141093626618385, -0.5669508576393127, -0.2797371447086334, 0.00680974405258894, 0.2509356141090393, 0.14900104701519012, -0.0032711070962250233, 0.3144051432609558, -0.39515382051467896, -0.7962320446968079, -0.3248886466026306, -0.38852763175964355, -1.5425300598144531, -2.6096079349517822, 0.10118187963962555, -2.395235300064087, -1.446083426475525, -0.4899795949459076, 1.695972204208374, 1.086361289024353, -0.46545806527137756, -1.2569893598556519, -0.8018494248390198, -0.997252881526947, -0.2749162018299103, -0.08085960149765015, -0.7286360263824463, 0.06689499318599701, -0.17269061505794525, -0.21021173894405365, -0.24313588440418243, 0.3491019308567047, -0.28851497173309326, -0.817398726940155, -0.4540281295776367, -0.44456443190574646, -0.5661489367485046, -0.12460257112979889, -0.6276066899299622, -1.016351580619812, -1.1322638988494873, -1.4473968744277954, 0.30910518765449524, -2.2721192836761475, -1.4674357175827026, 0.038498952984809875, 0.22246243059635162, 1.8570529222488403, 2.460136651992798, -0.25917908549308777, -1.3557147979736328, -0.9078013300895691, -0.862675666809082, -1.5227586030960083, -1.2845487594604492, -0.34539490938186646, -0.42885592579841614, -0.4601464867591858, -0.11021275073289871, 0.19299091398715973, -0.37930822372436523, -0.9773799180984497, -1.440714955329895, -1.75400710105896, -1.2241148948669434, -1.3573247194290161, -0.9856569766998291, -1.4478967189788818, -0.3830760419368744, 0.9946578145027161, 2.7463061809539795, -1.9406166076660156, -0.23790974915027618, -0.6653056144714355, -0.6082714796066284, 1.8822100162506104, 2.59527850151062, -0.28018757700920105, -0.7244835495948792, -0.8750426173210144, -1.7827398777008057, -1.5362796783447266, -1.5991685390472412, -0.47187286615371704, -0.1782343089580536, 0.28809747099876404, 0.08711807429790497, 0.32552677392959595, -0.22858692705631256, 0.15307630598545074, -0.9129398465156555, -0.48351386189460754, -0.9398203492164612, -0.816843569278717, -0.0529162771999836, -0.04750320315361023, -0.27383580803871155, 0.1963801085948944, 0.2784234285354614, -1.554632306098938, 0.12909868359565735, -0.6699506640434265, 0.24440258741378784, 0.7909010052680969, 0.8287871479988098, 0.4489038288593292, 0.052024610340595245, 0.6486124992370605, 0.10546068847179413, 0.06667450070381165, -0.17607428133487701, 0.4217424690723419, 0.037686001509428024, 0.9531418681144714, 0.2297120988368988, 0.6911005973815918, 0.4378933906555176, -0.5458357930183411, -0.3695598244667053, 0.33026978373527527, -0.39778903126716614, 0.6523283123970032, -0.931707501411438, 1.1519689559936523, 1.1718878746032715, 1.4500497579574585, 0.039169829338788986, -2.871005058288574, 0.1588403433561325, -0.07690656930208206, -0.03989173844456673, -1.092795729637146, -2.873145341873169, 0.3351169526576996, 0.8697428107261658, 1.6262048482894897, 0.814663290977478, 0.5666007399559021, 0.05008726939558983, -0.5581153631210327, 0.4069625437259674, 0.05913971737027168, 0.20819447934627533, -0.4191240072250366, 0.1995919942855835, 0.057029034942388535, 0.3108987510204315, 0.6920464634895325, 0.8216255307197571, 0.7466340661048889, 0.5889694094657898, 1.6223174333572388, 1.7908363342285156, 1.9899402856826782, 0.43174442648887634, -2.070148229598999, 0.018335863947868347, 0.005245960783213377, 0.04576435685157776, 1.6373214721679688, -0.24376316368579865, 4.1387553215026855, 1.8486278057098389, 1.431493878364563, 0.6789603233337402, -0.456787109375, -0.8314573764801025, 0.22561194002628326, 0.025339698418974876, -0.6343374252319336, -0.02611139789223671, -0.3284519910812378, 0.6279460191726685, 0.11167801171541214, 0.03164223954081535, -0.3419252336025238, -0.013459891080856323, 0.29176706075668335, 1.5739494562149048, 1.0079370737075806, 0.9780780076980591, 0.27563631534576416, -3.453784942626953, -2.234595537185669, 0.059745293110609055, -0.015646208077669144, -0.0016358625143766403, 0.10930527001619339, 0.5048015713691711, 2.327293872833252, 2.817824602127075, 1.537603497505188, 1.9255927801132202, 4.085140228271484, 2.597097158432007, 1.026590347290039, 0.6815087199211121, 1.4613107442855835, 0.689483642578125, 1.4675205945968628, 1.2282060384750366, 1.7814116477966309, 1.7772319316864014, 1.2688871622085571, 2.6124579906463623, 0.852996289730072, 0.10838592797517776, -0.5883530378341675, -2.1889090538024902, -1.7491706609725952, -1.5046360492706299, -1.8838435411453247, -0.07053123414516449, 0.0009780500549823046, 0.07401163130998611, 0.0650085061788559, 1.1563405990600586, -0.8638531565666199, -1.268420934677124, 0.797789990901947, 3.7241201400756836, 4.866026401519775, 5.071070194244385, 3.373964309692383, 2.3315467834472656, 2.3373196125030518, 3.5166780948638916, 3.842031955718994, 2.0699219703674316, 2.073296070098877, 2.1270365715026855, 4.112362384796143, 1.6846445798873901, 3.428504467010498, 2.45624041557312, 1.3053536415100098, 0.4864617586135864, -0.614463746547699, 0.5682275295257568, -0.023958491161465645, -0.039192937314510345, -0.004930796567350626, 0.06010804325342178, 0.0021161066833883524, 0.08652917295694351, 0.3804376721382141, 0.9213318228721619, 1.7902275323867798, 1.76042902469635, 1.9320977926254272, 2.5579967498779297, 3.485276222229004, 1.9553240537643433, 1.9414937496185303, 3.590541362762451, 4.008491516113281, -0.7914204001426697, -0.16235366463661194, 1.8225805759429932, 1.8693588972091675, 3.1838924884796143, 1.1698789596557617, 0.743342399597168, -0.369051992893219, 0.6049755811691284, -0.07357918471097946, 0.00773139763623476, -0.044687237590551376, -0.08005281537771225}, {-0.07158546894788742, -0.010782008990645409, -0.03258930891752243, -0.047121815383434296, -0.0025654975324869156, -0.05707310885190964, -0.023046767339110374, -0.01764305867254734, -0.010573634877800941, -0.004565220791846514, -0.04226712882518768, 0.062257666140794754, 0.0008050180040299892, 0.05035347864031792, 0.03978876769542694, 0.06493562459945679, 0.04826810583472252, -0.08359390497207642, 0.07335677742958069, -0.04695715010166168, 0.008576294407248497, 0.0508599653840065, -0.045775629580020905, 0.061858419328927994, 0.0020117575768381357, -0.06517195701599121, 0.05617155507206917, 0.019779188558459282, 0.0374600812792778, 0.07724685966968536, -0.04945574700832367, 0.07846567034721375, -0.03561077266931534, -0.03784971311688423, -0.2269037812948227, -0.23022177815437317, -0.3779362738132477, -0.7395555973052979, -0.056404367089271545, -0.10643062740564346, -0.212903693318367, -0.31038036942481995, 0.2615932524204254, 0.24553418159484863, -0.0720432922244072, -0.5302252769470215, -0.6061007380485535, -1.003679633140564, -0.6889508366584778, -0.5756527185440063, -0.24460284411907196, 0.015745459124445915, 0.024688607081770897, 0.05621249973773956, 0.02049974538385868, 0.029450876638293266, 0.02699124999344349, 0.0423734113574028, 